
\data\
ngram 1=20198
ngram 2=10795
ngram 3=5836

\1-grams:
-0.7451519	</s>	-2.720739
-0.744908	<s>	-0.1389818
-2.038441	a	-0.1616107
-6.119227	a.
-7.549237	a.'s
-7.295996	aaron
-7.489247	abandon
-7.200588	abandoned
-7.664612	abandoning
-7.787851	abandonment
-7.652868	abbey
-7.76736	abbot
-7.708764	abbott
-7.256928	abby
-7.794207	abdel
-2.843903	abdomen	-0.4936734
-8.8269	abdomens
-2.792803	abdominal	-0.1833788
-7.640072	abducted
-7.661911	abduction
-7.617594	abdul
-7.833394	abdullah
-7.534446	abe
-7.706177	abed
-7.638015	abel
-7.669732	abide
-7.760874	abiding
-7.623033	abigail
-7.502975	abilities
-6.958459	ability
-6.390685	able
-7.804989	abner
-3.26989	abnormal	-0.1200872
-3.269907	abnormalities	-0.1385892
-7.071288	aboard
-7.724537	abode
-7.765625	abolished
-7.67494	abort
-7.811228	aborted
-6.88202	abortion	-0.03486878
-7.49983	abortions
-7.720207	abound
-3.142416	about	-0.11884
-6.649384	above
-7.491727	abraham
-7.709688	abrams
-7.820344	abrasion
-7.802816	abrasions
-7.182907	abroad
-7.785761	abrupt	-0.1206477
-7.575619	abruptly
-7.688587	abs
-8.8269	abscess	0
-8.8269	abscesses	0
-7.375636	absence
-7.501545	absent
-7.29522	absolute
-6.511971	absolutely
-7.679771	absorb
-7.535205	absorbed
-7.762428	absorbing
-7.811589	absorption
-7.709688	abstinence
-7.655853	abstract
-7.520674	absurd
-7.612055	abu
-7.71578	abundance
-7.712551	abundant
-7.802726	abundantly
-7.003803	abuse
-7.36975	abused
-7.572598	abuses
-7.674754	abusing
-7.611492	abusive
-7.828269	abyss
-7.676426	ac
-7.447845	academic
-7.807432	academics
-7.245345	academy
-8.8269	acalculia	0
-7.767907	accelerate
-7.709688	accelerated
-7.803088	accelerating
-7.777207	acceleration
-7.466226	accent
-7.691925	accents
-6.960826	accept
-7.403384	acceptable
-7.486003	acceptance
-7.072172	accepted
-7.450432	accepting
-7.623033	accepts
-6.849875	access
-7.832315	accessed
-7.626032	accessible
-7.709319	accessories
-7.746043	accessory
-7.041698	accident
-7.641007	accidental
-7.400978	accidentally
-7.357873	accidents
-7.685805	accommodate
-7.689329	accommodation
-7.764529	accommodations
-7.206738	accompanied
-7.668894	accompany
-7.635677	accompanying
-7.74118	accomplice
-7.801549	accomplices
-7.469764	accomplish
-7.346082	accomplished
-7.691925	accomplishment
-7.659489	accomplishments
-7.455508	accord
-7.824218	accorded
-6.564002	according
-7.397512	accordingly
-7.778118	accords
-6.887853	account	-0.1190998
-7.710334	accountability
-7.576658	accountable
-7.655853	accountant
-7.795023	accountants
-7.602659	accounted
-7.449761	accounting
-7.133099	accounts
-7.728496	accumulated
-8.8269	accumulation	0
-7.625564	accuracy
-7.258874	accurate
-7.566457	accurately
-7.615529	accusation
-7.436628	accusations
-7.588728	accuse
-6.961912	accused
-7.75932	accuses
-7.514207	accusing
-7.56778	accustomed
-7.405982	ace
-7.775568	aces
-3.445987	ache	-0.2223626
-3.269896	aches	-0.2822798
-7.314328	achieve
-7.400881	achieved
-7.469573	achievement
-7.652401	achievements
-7.72463	achieving
-7.758039	achilles
-7.777572	aching
-7.42415	acid	-0.1136973
-3.048107	acidity	-0.1898529
-7.442765	acknowledge
-7.334764	acknowledged
-7.724169	acknowledges
-7.72463	acknowledging
-7.817368	acoustic
-7.574864	acquaintance
-7.727208	acquaintances
-7.691925	acquainted
-7.648761	acquire
-7.431158	acquired
-7.773745	acquiring
-7.653894	acquisition
-7.805622	acquisitions
-7.739252	acquittal
-7.582035	acquitted
-7.742465	acre
-7.49678	acres
-3.445529	across	-0.1158606
-6.595721	act
-7.245637	acted
-6.93517	acting
-6.561118	action
-7.085627	actions
-7.6935	activate
-7.553972	activated
-7.086707	active
-7.56882	actively
-7.541087	activist
-7.452539	activists
-7.098289	activities
-6.977098	activity
-7.16022	actor
-7.270643	actors
-7.353139	actress
-7.715873	actresses
-7.040223	acts
-7.135352	actual
-6.191572	actually	-0.1204921
-2.968898	acute	-0.1188913
-7.047304	ad
-7.604257	ada
-7.011878	adam
-7.620502	adam's
-7.809149	adamant
-7.213959	adams
-7.711073	adapt
-7.776843	adaptation
-7.597673	adapted
-7.833124	adapting
-6.938033	add
-6.84186	added
-7.712735	addict
-7.598238	addicted
-7.538905	addiction
-7.747693	addictive
-7.706084	addicts
-7.202443	adding
-7.541845	addison
-7.151608	addition
-7.068241	additional
-7.823678	additions
-6.820776	address
-7.18193	addressed
-7.456753	addresses
-7.404154	addressing
-7.337183	adds
-7.722879	ade
-7.680792	adele
-3.446006	adenopathy	-0.2221314
-7.46613	adequate
-7.721313	adequately
-7.809692	adhere
-7.818721	adieu
-7.826109	adios
-7.689236	adjacent
-7.748426	adjoining
-7.785488	adjourned
-7.595038	adjust
-7.590236	adjusted
-7.682092	adjusting
-7.624814	adjustment
-7.700813	adjustments
-7.761331	adler
-7.803993	administer
-7.641288	administered
-6.531474	administration
-7.484476	administration's
-7.720115	administrations
-7.538621	administrative
-7.606231	administrator
-7.780758	administrators
-7.684969	admirable
-7.756851	admirably
-7.185741	admiral
-7.558514	admiration
-7.590236	admire
-7.554729	admired
-7.814119	admirer
-7.801458	admirers
-7.702664	admiring
-7.728772	admissible
-7.483807	admission
-7.728589	admissions
-7.141621	admit
-7.418577	admits
-7.069519	admitted
-7.815473	admittedly
-7.551415	admitting
-7.824578	ado
-7.726748	adolescent
-7.767268	adolf
-7.500497	adopt
-7.225955	adopted
-7.710981	adopting
-7.490296	adoption
-7.641849	adorable
-7.753739	adore
-7.708302	adored
-7.67029	adorned
-7.727668	adrenaline
-7.384989	adrian
-7.806979	adriana
-7.767633	adrift
-7.215227	ads
-7.244079	adult
-7.737047	adultery
-7.247292	adults
-7.134372	advance
-7.135744	advanced
-7.750442	advancement
-7.481325	advances
-7.494111	advancing
-7.088964	advantage
-7.582035	advantages
-7.315006	adventure
-7.831147	adventurer
-7.818721	adventurers
-7.516871	adventures
-7.766082	adventurous
-7.793208	adversaries
-7.74017	adversary
-7.711073	adverse
-7.806889	adversity
-7.777116	advertise
-7.728865	advertised
-7.757216	advertisement
-7.758771	advertisements
-7.748059	advertisers
-7.191994	advertising
-6.975718	advice	-0.03486266
-8.8269	advil	0
-7.532358	advise	-0.1121493
-7.369654	advised
-7.395586	adviser
-7.452252	advisers
-7.813577	advises
-7.67122	advising
-7.687845	advisor
-7.817097	advisors
-7.689792	advisory
-7.745676	advocacy
-7.422421	advocate
-7.762885	advocated
-7.477695	advocates
-7.753739	advocating
-7.770462	ae
-7.633805	aerial
-7.799556	aerospace
-7.814119	aesthetic
-7.748059	afar
-7.143384	affair
-7.042288	affairs
-3.269841	affect	-0.3644135
-7.10241	affected
-7.462208	affecting
-7.393467	affection
-7.726748	affectionate
-7.814931	affectionately
-7.727208	affections
-3.445957	affects	-0.2997055
-7.722879	affidavit
-7.735117	affiliate
-7.815022	affiliated
-7.309093	affirmative
-7.776388	affirmed
-7.736588	afflicted
-7.800009	affliction
-7.802726	affluent
-7.153859	afford
-7.667406	affordable
-7.552078	afforded
-7.822237	affording
-7.676612	affords
-7.774292	afghan
-7.584487	afghanistan
-7.713843	afloat
-7.782214	afoot
-3.26981	afraid	-0.08996645
-7.782851	afresh
-7.030877	africa
-7.704421	africa's
-6.912458	african
-7.692017	africans
-7.645586	aft
-2.746612	after	-0.1718475
-7.676519	aftermath
-3.269806	afternoon	-0.1487116
-7.818721	afternoons
-7.416751	afterward
-7.028318	afterwards
-7.821876	ag
-3.144295	again	-0.109856
-6.070218	against
-7.76124	agatha
-6.655641	age	-0.03482122
-7.391638	aged
-7.165405	agencies
-6.892696	agency
-7.823047	agency's
-6.999074	agenda
-6.7411	agent
-6.969604	agents
-7.364344	ages
-7.831417	aggie
-7.672058	aggravated
-7.476645	aggression
-7.235019	aggressive
-7.626407	aggressively
-7.515539	aging
-7.623877	agitated
-7.7319	agitation	-0.03493169
-7.52894	agnes
-8.8269	agnosia	0
-3.445407	ago	-0.03394733
-7.809511	agonizing
-7.593908	agony
-8.8269	agraphia	0
-6.605661	agree
-7.688123	agreeable
-6.755875	agreed
-7.545352	agreeing
-6.623253	agreement
-7.405982	agreements
-7.28755	agrees
-7.499164	agricultural
-7.380651	agriculture
-6.70062	ah
-7.67494	aha
-6.508189	ahead
-7.504594	ahh
-7.791212	ahmad
-7.692573	ahmed
-7.56589	ai
-6.879054	aid
-7.668522	aidan
-7.512209	aide
-7.582601	aided
-7.374671	aides
-7.583639	aidid
-7.745125	aiding
-6.941389	aids
-7.804084	ailing
-7.828359	ailments
-7.337087	aim
-7.27803	aimed
-7.656319	aiming
-7.632588	aims
-6.714513	ain't
-6.393176	air	-0.1197124
-7.640634	airborne
-7.053204	aircraft
-7.72509	aired
-7.816916	airfield
-7.768364	airing
-7.294346	airline
-7.256248	airlines
-7.42415	airplane
-7.532738	airplanes
-7.023003	airport
-7.638389	airports
-7.670941	airs
-7.796837	airspace
-7.819623	airways
-7.582695	aisle
-7.525046	aka
-7.787851	akin
-6.765294	al
-7.760417	al's
-7.795385	ala
-7.400015	alabama
-7.811409	alain
-6.950764	alan
-7.831057	alan's
-7.30046	alarm
-7.590236	alarmed
-7.728957	alarming
-7.654361	alarms
-7.56069	alas
-7.504117	alaska
-7.826379	albania
-7.803179	albanian
-7.708025	albany
-7.593908	albeit
-7.26442	albert
-7.729508	alberto
-7.617125	albright
-7.282208	album
-7.67717	albums
-7.785488	albuquerque
-7.158557	alcohol
-7.568536	alcoholic
-7.775476	alcoholics
-7.781486	alcoholism
-7.766721	alderman
-7.722787	ale
-7.530649	alec
-7.794388	alejandro
-7.210349	alert
-7.773198	alerted
-7.024184	alex
-7.817548	alex's
-7.051041	alexander
-7.802726	alexander's
-7.713197	alexandra
-7.781486	alexandria
-7.545163	alexis
-7.559839	alf
-7.817638	alfie
-7.802636	alfonso
-7.436052	alfred
-7.800009	alfredo
-7.752182	algebra
-7.70821	algeria
-7.795295	algerian
-7.829888	algiers
-7.789395	algorithm
-7.254009	ali
-7.645306	alias
-7.828269	aliases
-7.480657	alibi
-7.815382	alibis
-7.174403	alice
-7.825659	alice's
-7.532928	alicia
-7.229562	alien
-7.766356	alienated
-7.400304	aliens
-7.782305	aligned
-7.223615	alike
-7.788124	alimony
-7.50145	alison
-7.820704	alistair
-6.774413	alive
-8.8269	alkaselzer	0
-3.045996	all	-0.238469
-7.772833	all's
-7.663774	allah
-7.444012	allan
-7.665264	allegation
-7.213276	allegations
-7.218934	alleged
-7.348596	allegedly
-7.704883	allegiance
-7.766447	alleging
-7.16384	allen
-7.829888	allen's
-3.144996	allergic	-0.3202084
-7.755478	allergies
-3.445988	allergy	-0.222521
-7.503642	alley
-7.252257	alliance
-7.633056	alliances
-7.717533	allie
-7.432118	allied
-7.155621	allies
-7.756576	alligator
-7.828449	alligators
-7.327407	allison
-7.814119	allotted
-6.783134	allow
-7.654547	allowance
-6.771737	allowed
-7.225273	allowing
-7.197756	allows
-7.792028	allright
-7.677727	alluded
-7.265975	ally
-7.619282	alma
-7.729416	almighty
-7.816556	almond
-6.287722	almost
-7.690441	aloft
-6.463792	alone
-3.445476	along	-0.1044826
-7.403672	alongside
-7.812944	aloof
-7.623877	aloud
-7.298034	alpha
-7.736588	alphabet
-7.829168	alphonse
-7.747968	alpine
-6.225091	already	-0.1208032
-7.106236	alright
-7.812312	als
-2.901429	also	-0.01673569
-7.673266	altar
-7.524951	alter
-7.829798	alterations	0
-3.445965	altered	-0.1205589
-7.773927	altering
-7.551415	alternate
-7.689236	alternately
-7.790758	alternates
-7.806346	alternating
-7.176358	alternative
-7.563148	alternatives
-6.580509	although
-7.625564	altitude
-7.538621	altman
-7.141131	altogether
-7.673824	aluminum
-7.760326	alumni
-7.662284	alvarez
-7.640634	alvin
-3.269357	always	-0.119745
-7.632963	alzheimer's
-2.600841	am	-0.03851402
-7.265392	amanda
-7.745309	amanda's
-7.670383	amanpour
-7.508307	amateur
-7.730429	amateurs
-7.551794	amazed
-7.797472	amazement
-7.08818	amazing
-7.713104	amazingly
-7.742281	amazon
-7.024578	ambassador
-7.714304	ambassadors
-7.430774	amber
-7.773745	ambiguous
-7.411945	ambition
-7.651095	ambitions
-7.486003	ambitious
-7.679771	ambrose
-7.597203	ambulance
-7.811138	ambulances
-7.645866	ambush
-7.782942	ambushed
-7.538431	amelia
-7.479893	amen
-7.826109	amend
-7.735117	amended
-6.999666	amendment
-7.650722	amendments
-6.45035	america
-7.127121	america's
-6.092677	american
-6.504606	americans
-7.524096	ames
-7.823498	amiable
-7.227515	amid
-7.44449	amidst
-7.636986	amigo
-7.716518	amir
-7.802545	amish
-7.722879	ammo
-7.800824	ammonia
-7.479606	ammunition
-7.739803	amnesia
-7.581847	amnesty
-6.36697	among
-7.056546	amongst
-7.639137	amos
-6.812458	amount
-7.639698	amounted
-7.739436	amounting
-7.317914	amounts
-7.661632	ample
-7.684784	amsterdam
-7.780212	amtrak
-7.797109	amuse
-7.580997	amused
-7.600778	amusement
-7.582884	amusing
-7.092204	amy
-7.626969	amy's
-2.746186	an	-0.2163501
-7.514207	ana
-7.710981	anal	-0.1203365
-7.826109	analogous
-7.627719	analogy
-7.065981	analysis
-7.247	analyst
-7.193264	analysts
-7.819081	analytical
-7.625001	analyze
-7.618719	analyzed
-7.721498	analyzing
-7.650722	anarchy
-7.713012	anatomy
-7.782942	ancestor
-7.587597	ancestors
-7.825299	ancestry
-7.514398	anchor
-7.831147	anchorage
-7.755478	anchored
-7.821245	anchors
-7.165308	ancient
-1.827097	and	0.01475428
-7.714027	anders
-7.320529	anderson
-7.694519	andie
-7.44219	andre
-7.227125	andrea
-7.736496	andreas
-7.743107	andrei
-7.055465	andrew
-7.778118	andrew's
-7.604069	andrews
-7.686918	andromeda
-7.049664	andy
-7.682556	andy's
-7.802636	anecdote
-7.770462	anecdotes
-3.446006	anemia	-0.03475692
-7.81466	anesthesia
-7.589105	anew
-7.810324	ange
-7.131433	angel
-7.274143	angela
-7.781486	angela's
-6.625538	angeles
-7.72684	angelica
-7.760143	angelina
-7.605762	angelo
-7.354009	angels
-7.059495	anger
-7.698222	angered
-7.534636	angie
-7.305698	angle
-7.655293	angles
-7.828719	angola
-7.590236	angrily
-6.941586	angry
-7.67122	anguish
-7.640353	angus
-6.964772	animal
-6.944251	animals
-7.603693	animated
-7.683671	animation
-7.78094	animosity
-7.535016	anita
-7.631371	ankle
-7.771648	ankles
-7.136429	ann
-7.146321	anna
-7.724169	anna's
-7.802002	annabelle
-7.628655	annan
-7.108885	anne
-7.702478	annette
-7.179975	annie
-7.772833	annie's
-7.288909	anniversary
-7.386724	announce
-6.854526	announced
-7.20869	announcement
-7.723985	announcements
-7.705715	announces
-7.456369	announcing
-7.822597	annoy
-7.825659	annoyance
-7.623689	annoyed
-7.545352	annoying
-7.213179	annual
-7.594473	annually
-8.8269	anogenital	0
-7.738701	anomalies
-7.697852	anomaly
-7.611492	anonymity
-7.423669	anonymous
-7.732543	anonymously
-8.8269	anorexia	0
-6.060834	another	-0.1193244
-7.786125	another's
-7.789577	anson
-6.518737	answer
-6.887259	answered
-7.312195	answering
-7.038452	answers
-7.609801	ant
-7.749892	ante
-7.790576	antenna
-7.790213	anthem
-7.190138	anthony
-7.75383	anthrax
-6.880834	anti
-8.8269	antibiotic	0
-3.445981	antibiotics	-0.1102894
-7.544499	anticipate
-7.494302	anticipated
-7.694055	anticipating
-7.660421	anticipation
-7.816465	antics
-7.821245	antidote
-8.8269	antiinflammatory	0
-7.610741	antique
-7.730429	antiques
-7.805803	antiquities
-7.653428	antoine
-7.60059	anton
-7.784306	antonia
-7.411175	antonio
-7.72822	antony
-7.617781	ants
-7.716426	anwar
-7.823047	anxieties
-7.335054	anxiety	-0.03486139
-7.283568	anxious
-7.600307	anxiously
-2.385136	any	-0.2167653
-6.633786	anybody
-7.516966	anybody's
-7.333506	anyhow
-3.44566	anymore	-0.2228572
-6.566687	anyone
-7.501164	anyone's
-7.721129	anyplace
-6.194166	anything	-0.03481334
-7.784488	anything's
-7.2242	anytime
-6.522618	anyway	-0.1204941
-7.448899	anyways
-6.763708	anywhere	-0.1208032
-7.786034	apache
-6.910087	apart
-7.646427	apartheid
-6.971576	apartment
-7.454742	apartments
-7.81836	apathy
-7.672337	ape
-7.727668	apes
-7.767817	aphrodite
-7.690719	apiece
-8.8269	apnea	0
-7.760326	apocalypse
-7.481994	apollo
-7.624721	apologies
-7.440944	apologize
-7.635489	apologized
-7.727208	apologizing
-7.459337	apology
-7.832944	app
-7.7443	appalled
-7.730153	appalling
-7.603787	apparatus
-7.724169	apparel
-7.371777	apparent
-6.64084	apparently
-7.040911	appeal
-7.484285	appealed
-7.482566	appealing
-7.296191	appeals
-6.851162	appear	-0.1190608
-7.096228	appearance
-7.517442	appearances
-6.763014	appeared
-7.381422	appearing
-6.767871	appears
-7.828359	appellate
-7.833573	appendix
-2.968896	appetite	-0.8753504
-7.80182	appetites
-7.739436	applaud
-7.730061	applauded
-7.497639	applause
-7.233753	apple
-7.465461	apples
-7.722419	appliances
-7.801277	applicable
-7.762428	applicants
-7.335248	application
-7.455412	applications
-7.215129	applied
-7.508688	applies
-7.224297	apply
-7.559839	applying
-7.684134	appoint
-7.219519	appointed
-7.363572	appointment
-7.548479	appointments
-7.114083	appreciate
-7.596168	appreciated
-7.734658	appreciates
-7.536629	appreciation
-7.74017	apprehended
-7.728404	apprehension
-7.828359	apprehensive
-7.754197	apprentice
-6.855812	approach
-7.213861	approached
-7.412906	approaches
-7.214837	approaching
-7.081011	appropriate
-7.790758	appropriated
-7.670476	appropriately
-7.647734	appropriations
-7.171371	approval
-7.444299	approve
-7.130159	approved
-7.770918	approves
-7.786306	approving
-7.79738	approximate
-7.177922	approximately
-6.983111	april
-7.760692	apron
-7.730521	apt
-7.806527	aqua
-7.809149	aquarium
-7.583167	ar
-7.153859	arab
-7.594191	arabia
-7.815473	arabian
-7.700444	arabic
-7.504689	arabs
-7.267532	arafat
-7.821065	arafat's
-7.743015	arbitrary
-7.759411	arbitration
-7.758314	arc
-7.809511	arcade
-7.468043	arch
-7.652029	archbishop
-7.464217	archer
-7.76389	arches
-7.816104	archibald
-7.365213	archie
-7.560879	architect
-7.712643	architects
-7.737231	architectural
-7.500021	architecture
-7.777663	archive
-7.638483	archives
-7.721313	arctic
-7.78185	ardent
-2.467449	are	-0.3295442
-3.047917	area	-0.1787665
-6.750918	areas
-6.390685	aren't
-7.40906	arena
-7.625376	ares
-7.670383	argentina
-7.124965	argue
-7.289007	argued
-7.585901	argues
-7.286967	arguing
-6.931814	argument
-7.718639	argumentative
-7.178118	arguments
-7.373224	ari
-7.751083	aria
-7.624064	ariel
-7.525711	arise
-7.649975	arises
-7.631839	arising
-7.309093	aristide
-7.816375	aristocracy
-7.826199	aristocratic
-7.796837	aristotle
-7.797925	arithmetic
-7.285316	arizona
-7.732912	ark
-7.234435	arkansas
-7.800734	arlen
-7.803813	arlene
-7.722603	arlington
-6.972267	arm	-0.1206477
-7.790303	armageddon
-7.755844	armand
-6.914236	armed
-7.761605	armenian
-7.76882	armey
-7.494588	armies
-7.799828	arming
-7.543646	armor
-7.578356	armored
-7.747326	armour
-6.806416	arms	-0.1143569
-7.598144	armstrong
-6.693771	army
-7.76882	army's
-7.79103	arnett
-7.707563	arnie
-7.312389	arnold
-7.815473	aroma
-7.339506	arose
-5.999233	around
-7.561541	aroused
-7.819442	arraigned
-7.752366	arraignment
-7.566079	arrange
-7.259361	arranged
-7.35884	arrangement
-7.410021	arrangements
-7.677077	arranging
-7.550184	array
-7.777572	arrayed
-7.043173	arrest
-6.996217	arrested
-7.641288	arresting
-7.474638	arrests
-7.330699	arrival
-7.204493	arrive
-6.769755	arrived
-7.279196	arrives
-7.322855	arriving
-7.626501	arrogance
-7.550563	arrogant
-7.569859	arrow
-7.605949	arrows
-7.639605	arsenal
-7.819262	arsenic
-7.588634	arson
-6.733066	art
-7.758863	arteries	-0.03490143
-7.734199	artery
-8.8269	arthralgia	0
-7.699055	arthritis	-0.03494448
-7.08327	arthur
-7.759137	arthur's
-7.162177	article
-7.338829	articles
-7.685341	articulate
-7.521625	artie
-7.76882	artifact
-7.648108	artifacts
-7.43893	artificial
-7.78467	artificially
-7.36164	artillery
-7.200978	artist
-7.50307	artistic
-7.225175	artists
-7.292696	arts
-7.828269	arturo
-7.797018	artwork
-7.827549	arvin
-7.725827	aryan
-2.541974	as	-0.2021222
-7.831417	asa
-7.782305	asbestos
-7.787942	ascend
-7.640634	ascended
-7.740446	ascending	-0.1205699
-7.819893	ascribed
-8.8269	asd	0
-7.401459	ash
-7.52077	ashamed
-7.821065	ashe
-7.557758	ashes
-7.383254	ashley
-7.823858	ashley's
-7.523145	ashore
-7.757399	ashton
-7.191408	asia
-7.826739	asia's
-7.162079	asian
-7.764255	asians
-6.969111	aside
-6.333482	ask	-0.1190523
-6.318131	asked
-6.719276	asking
-7.196487	asks
-7.31772	asleep
-7.828719	asparagus
-7.236189	aspect
-7.362123	aspects
-7.677077	aspin
-7.805441	aspiration
-7.688123	aspirations
-3.445982	aspirin	-0.1179558
-7.808607	aspiring
-7.015325	ass
-7.642129	assad
-7.79103	assailant
-7.8001	assailed
-7.553214	assassin
-7.68868	assassinated
-7.381615	assassination
-7.819352	assassinations
-7.651655	assassins
-7.036681	assault
-7.607265	assaulted
-7.782305	assaulting
-7.672801	assaults
-7.66815	assemble
-7.477887	assembled
-7.804537	assembling
-7.285122	assembly
-7.696926	assert
-7.59259	asserted
-7.791847	asserting
-7.702386	assertion
-7.756485	asserts
-7.622939	asses
-7.600214	assess
-7.830068	assessing
-7.386146	assessment
-7.495351	asset
-7.288327	assets
-7.760966	assign
-7.289493	assigned
-7.354685	assignment
-7.61168	assignments
-7.447941	assist
-7.128396	assistance
-7.054974	assistant
-7.658463	assistants
-7.411175	assisted
-7.671592	assisting
-7.387687	associate
-7.18105	associated
-7.446791	associates
-6.929346	association
-7.598803	associations
-7.116044	assume
-7.303176	assumed
-7.582884	assumes
-7.300557	assuming
-7.492681	assumption
-7.649135	assumptions
-7.580904	assurance
-7.676612	assurances
-7.500212	assure
-7.286967	assured
-7.710519	assures
-7.737139	assuring
-7.762063	asteroid
-7.816375	asteroids
-7.689143	asthma	-0.1206477
-7.644279	astonished
-7.694055	astonishing
-7.766812	astonishment
-7.802907	astounding
-7.827729	astray
-7.787306	astrid
-7.833124	astro
-7.597956	astronaut
-7.396357	astronauts
-7.777572	astronomer
-7.651842	astronomers
-7.735394	astronomical
-7.750442	astronomy
-7.479606	asylum
-2.569982	at	-0.2746466
-3.269907	ataxia	-0.2814563
-7.206738	ate	-0.1208063
-7.766629	athena
-7.678006	athens
-7.524666	athlete
-7.355362	athletes
-7.481802	athletic
-7.812312	athletics
-7.723064	atkins
-7.025857	atlanta
-7.347919	atlantic
-7.599085	atlantis
-7.792664	atlas
-7.187109	atmosphere
-7.690349	atmospheric
-7.724169	atom
-7.524951	atomic
-7.701831	atoms
-7.718086	atop
-7.664892	atrocities
-3.446006	atrophy	-0.2221314
-7.668615	attach
-7.126729	attached
-7.804537	attaches
-7.824218	attaching
-7.617781	attachment
-7.816826	attachments
-6.619179	attack
-7.033434	attacked
-7.792392	attacker
-7.299878	attacking
-6.973351	attacks
-7.792573	attain
-7.72205	attained
-6.94208	attempt
-7.199416	attempted
-7.38335	attempting
-7.27317	attempts
-7.324405	attend
-7.578167	attendance
-7.637173	attendant
-7.667592	attendants
-7.245637	attended
-7.3766	attending
-7.784761	attends
-6.688311	attention	-0.1145495
-7.809963	attentions
-7.752182	attentive
-7.784033	attic
-7.712827	attire
-7.039141	attitude
-7.52191	attitudes
-6.676	attorney
-7.609332	attorney's
-7.082877	attorneys
-7.46326	attract
-7.320917	attracted
-7.705437	attracting
-7.514018	attraction
-7.775021	attractions
-7.290852	attractive
-7.6607	attracts
-7.709873	attribute
-7.568064	attributed
-7.653894	attributes
-7.362992	au
-7.697945	aubrey
-7.475403	auction
-6.949876	audience
-7.510877	audiences
-7.473969	audio
-7.71375	audit
-7.597579	audition
-7.704421	auditions
-7.822507	auditorium
-7.420211	audrey
-7.057824	august
-7.728496	augustus
-7.117319	aunt
-7.559933	auntie
-7.817097	aunts
-7.701461	aura
-7.690256	aurora
-7.830428	austerity
-7.411945	austin
-7.338345	australia
-7.406078	australian
-7.612055	austria
-7.651375	austrian
-7.614872	authentic
-7.108689	author
-6.960728	authorities
-6.962503	authority
-7.653335	authorization
-7.786488	authorize
-7.455986	authorized
-7.826109	authorizing
-7.577601	authors
-7.205176	auto
-7.780121	autobiography
-7.728312	autograph
-7.818089	autographs
-7.816285	automated
-7.398283	automatic
-7.415021	automatically
-7.539759	automobile
-7.730153	automobiles
-7.814931	automotive
-8.8269	autonomic	0
-7.690256	autonomy
-7.799918	autopsies
-7.413291	autopsy
-7.615905	autumn
-7.825119	aux
-7.745217	auxiliary
-7.629311	ava
-7.798469	avail
-7.778118	availability
-6.788386	available
-7.779666	avalanche
-7.620502	ave
-7.142502	avenue
-7.778574	avenues
-6.910185	average
-7.81836	averages
-7.809963	aversion
-7.799012	avert
-7.774747	averted
-7.584864	avery
-7.556527	aviation
-7.683485	aviv
-7.071778	avoid
-8.8269	avoidance	0
-7.492394	avoided
-7.490106	avoiding
-7.600872	avon
-7.286288	aw
-7.593626	await
-7.560784	awaited
-7.354395	awaiting
-7.500783	awaits
-7.386628	awake
-7.808607	awaken
-7.626313	awakened
-7.721866	awakening
-7.190431	award
-7.612713	awarded
-7.34231	awards
-6.996316	aware
-7.525521	awareness
-6.156251	away	-0.1188146
-7.717533	awe
-7.316072	awesome
-7.127905	awful
-7.51573	awfully
-7.52989	awhile
-7.471675	awkward
-7.819262	awkwardly
-7.568253	awoke
-7.713012	ax
-7.650442	axe
-7.748334	axel
-7.818721	axes
-7.800552	axis
-7.469955	ay
-7.183787	aye
-7.708672	aziz
-8.8269	azotemia	0
-7.6175	b
-6.209529	b.
-7.760966	baba
-7.734199	babbitt
-7.788396	babbling
-7.797018	babcock
-7.130846	babe
-7.626501	babes
-8.8269	babesia
-7.08975	babies
-7.777936	babs
-6.510578	baby
-7.639698	baby's
-7.628843	babylon
-7.766812	babysitter
-7.751999	babysitting
-7.784579	bach
-7.541087	bachelor
-2.90123	back	-0.06318596
-8.8269	backache	0
-7.798015	backbone
-7.808155	backdrop
-7.182516	backed
-7.08975	background
-7.717626	backgrounds
-7.343472	backing
-7.749067	backlash
-7.767268	backpack
-7.439409	backs
-7.588634	backstage
-7.456753	backup
-7.494111	backward
-7.296384	backwards
-7.686454	backyard
-7.418866	bacon
-7.476932	bacteria
-7.780212	bacterial
-3.047924	bad	-0.09974597
-7.566457	bade
-7.52172	badge
-7.737599	badger
-7.733923	badges
-7.143286	badly
-7.74118	baffled
-6.932307	bag
-7.824399	bagel
-7.784488	bagels
-7.567592	baggage
-7.784852	bagged
-7.806346	baggy
-7.291822	baghdad
-7.187988	bags
-7.800009	bah
-7.807884	baht
-7.335926	bail
-7.692388	bailed
-7.22459	bailey
-7.774656	bailey's
-7.790213	bailing
-7.770006	bailout
-7.714858	baird
-7.538146	bait
-7.659955	bake
-7.52457	baked
-7.263155	baker
-7.804265	baker's
-7.764712	bakery
-7.593814	baking
-7.823498	bal
-6.968026	balance	-0.03480905
-7.057038	balanced
-7.781759	balances
-7.507545	balancing
-7.71947	balcony
-7.493253	bald
-7.697482	baldwin
-7.831417	balkan
-7.740721	balkans
-6.890324	ball
-7.774565	ballad
-7.813486	ballads
-7.75868	ballard
-7.502689	ballet
-7.806979	ballistic
-7.733096	ballistics
-7.465365	balloon
-7.581847	balloons
-7.434805	ballot
-7.671592	ballots
-7.828719	ballpark
-7.664333	ballroom
-7.178802	balls
-7.824038	baloney
-7.436723	baltimore
-7.550468	bam
-7.717349	bambi
-7.724537	bamboo
-7.08975	ban
-7.485144	banana
-7.573259	bananas
-6.986265	band
-7.79221	bandage
-7.770462	bandages
-7.733739	bandit
-7.658557	bandits
-7.316557	bands
-7.765899	bane
-7.331861	bang
-7.679864	banged
-7.533023	banging
-7.664054	bangkok
-7.752182	bangs
-7.662843	banished
-6.637959	bank
-7.805893	bank's
-7.600778	banker
-7.557001	bankers
-7.28755	banking
-7.589199	bankrupt
-7.538431	bankruptcy
-6.943165	banks
-7.42146	banned
-7.540233	banner
-7.745676	banners
-7.696834	banning
-7.688587	banquet
-7.765899	banter
-7.778482	baptism
-7.671127	baptist
-7.815563	baptized
-6.903072	bar
-7.523715	barb
-7.129081	barbara
-7.817097	barbarian
-7.781759	barbarians
-7.782032	barbaric
-7.562676	barbecue
-7.779119	barbed
-7.615905	barber
-7.582601	barbie
-7.778938	barbra
-7.767451	barcelona
-7.777025	barclay
-7.816646	bard
-7.387687	bare
-7.734934	barefoot
-7.141523	barely
-7.455317	bargain
-7.57864	bargaining
-7.770006	bargains
-7.702664	barge
-7.486289	bark
-7.671034	barker
-7.572409	barking
-7.79212	barley
-7.807522	barlow
-7.540233	barn
-7.488007	barnes
-7.813486	barnett
-7.31772	barney
-7.822056	barney's
-7.464982	baron
-7.826649	barr
-7.645773	barracks
-7.808245	barrage
-7.597297	barred
-7.516871	barrel
-7.614121	barrels
-7.691276	barren
-7.6607	barrett
-7.820975	barricade
-7.537767	barrier
-7.506022	barriers
-7.722327	barring
-7.814479	barrow
-7.048877	barry
-7.795023	barry's
-7.263155	bars
-7.315297	bart
-7.690812	bartender
-7.75264	bartlett
-7.663402	barton
-7.736312	bartow
-6.832952	base
-6.97483	baseball
-6.582796	based
-7.494206	basement
-7.386242	bases
-7.668894	bash
-7.6935	bashing
-7.041403	basic
-6.727213	basically
-7.775385	basics
-7.605762	basil
-7.701183	basin
-6.979464	basis	-0.1199462
-7.457518	basket
-7.185057	basketball
-7.69887	baskets
-7.481707	bass
-7.259361	bastard
-7.472154	bastards
-7.381036	bat
-7.714581	batch
-7.611398	bates
-3.445957	bath	-0.03479583
-7.785488	bathe
-7.699333	bathed
-7.597203	bathing
-7.37361	bathroom
-7.77183	bathrooms
-7.683763	baths
-7.543362	batman
-7.731256	baton
-7.604915	bats
-7.596638	battalion
-7.833214	battalions
-7.723985	batter
-7.469477	battered
-7.475689	batteries
-7.808607	battering
-7.403672	battery
-7.724722	batting
-6.797105	battle
-7.809149	battled
-7.680235	battlefield
-7.362413	battles
-7.580904	battling
-7.600307	bauer
-7.555865	baxter
-7.038157	bay
-7.817638	bays
-3.045219	be	-0.1841263
-7.70978	bea
-7.046419	beach
-7.592873	beaches
-7.634834	beacon
-7.674289	beads
-7.78003	beak
-7.41156	beam
-7.705992	beamed
-7.71135	beaming
-7.604352	beams
-7.545258	bean
-7.448133	beans
-6.950862	bear
-7.481994	beard
-7.770006	bearded
-7.817638	beards
-7.794116	bearer
-7.132903	bearing
-7.225175	bears
-7.354975	beast
-7.558609	beasts
-6.784027	beat
-7.293085	beaten
-7.078556	beating
-7.789577	beatings
-7.743933	beatles
-7.60153	beatrice
-7.3514	beats
-7.639698	beau
-7.792392	beaumont
-7.681164	beauties
-6.819686	beautiful
-7.475689	beautifully
-7.008333	beauty
-7.582601	beaver
-7.796837	bebe
-6.527892	became
-3.046968	because	-0.1741458
-7.628094	beck
-7.645213	becker
-7.633618	beckett
-7.803632	beckoned
-7.516585	becky
-6.465087	become	-0.1203483
-6.805426	becomes
-7.000946	becoming
-3.269819	bed	-0.2816875
-7.810324	bedding
-7.757583	bedford
-7.277544	bedroom
-7.756393	bedrooms
-7.41156	beds
-7.754197	bedside
-7.715504	bedtime
-7.44449	bee
-7.792392	beecher
-7.283277	beef
-2.900983	been	-0.1193211
-7.775294	beep
-7.128493	beer
-7.644745	beers
-7.536534	bees
-7.718824	beethoven
-7.733923	beetle
-7.761423	beetles
-3.268718	before	-0.1127951
-7.520009	beforehand
-7.486098	beg
-6.471061	began
-7.770736	beggar
-7.7273	beggars
-7.414541	begged
-7.384218	begging
-6.678383	begin	-0.1203365
-6.696848	beginning
-7.752823	beginnings
-6.929543	begins
-7.804084	begleiter
-7.718639	begs
-7.212008	begun
-7.35768	behalf
-7.444107	behave
-7.607547	behaved
-7.831686	behaves
-7.697389	behaving
-3.445878	behavior	-0.2224416
-3.269894	behavioral	-0.1202621
-7.812132	behaviors
-8.8269	behaviour	0
-6.336672	behind	-0.1057721
-7.556433	behold
-7.823498	beige
-7.42895	beijing
-5.902362	being
-7.332441	beings
-7.756118	beirut
-7.710427	bel
-7.799375	bela
-7.713197	belfast
-7.666288	belgian
-7.657811	belgium
-7.608204	belgrade
-7.235993	belief
-7.465843	beliefs
-7.799828	believable
-6.18818	believe
-6.888446	believed
-7.793208	believer
-7.723433	believers
-6.913051	believes
-7.354106	believing
-7.085038	bell
-7.793662	bell's
-7.553214	bella
-7.51611	belle
-7.466513	bells
-7.479033	belly
-7.175772	belong
-7.249629	belonged
-7.296191	belonging
-7.721958	belongings
-7.087983	belongs
-7.49802	beloved
-6.824142	below
-7.329731	belt
-7.630997	belts
-7.777481	beltway
-6.882514	ben
-7.64624	ben's
-7.430966	bench
-7.790485	benches
-7.421556	bend
-7.518582	bender
-7.47244	bending
-7.750534	bends
-6.982224	beneath
-7.744667	benedict
-7.693778	beneficial
-7.027039	benefit
-7.735486	benefited
-6.972365	benefits
-7.815473	benevolence
-7.772286	benevolent
-7.716703	benign	-0.1201027
-7.831686	benito
-7.264614	benjamin
-7.783578	bennet
-7.346856	bennett
-7.443053	benny
-7.619188	benson
-7.203516	bent
-7.68868	bentley
-7.71375	benton
-7.712551	bentsen
-7.729416	berg
-7.65837	berger
-7.64708	berkeley
-7.381133	berlin
-7.821245	bermuda
-7.780849	bernadette
-7.277544	bernard
-7.173913	bernie
-7.790939	bernstein
-7.682371	berries
-7.569764	berry
-7.519438	bert
-7.810867	berta
-7.725827	bertha
-7.599367	bertie
-7.750717	bertram
-7.650442	bertrand
-7.808155	beset
-7.076493	beside
-3.048048	besides	-0.1674439
-7.712735	besieged
-7.741547	bess
-7.671685	bessie
-6.328299	best
-7.831866	bestow
-7.644092	bestowed
-7.087787	bet
-7.607171	beta
-7.344149	beth
-7.717349	bethany
-7.786579	bethlehem
-7.657345	betray
-7.617031	betrayal
-7.35111	betrayed
-7.743566	betraying
-7.790485	betrays
-7.596168	bets
-7.535585	betsy
-7.652494	bette
-6.225989	better	-0.0347995
-7.527895	betting
-7.196487	betty
-7.787579	betty's
-3.4451	between	-0.0345913
-7.763068	bev
-7.713104	beverage
-7.806889	beverages
-7.393467	beverly
-7.60106	beware
-7.713012	bewildered
-6.633786	beyond
-7.641849	bi
-7.656785	bianca
-7.511068	bias
-7.726932	biased
-7.367241	bible
-7.694148	biblical
-7.76389	bickering
-7.608768	bicycle
-7.810957	bicycles
-7.199807	bid
-7.464982	bidding
-7.586938	bids
-7.757583	bien
-7.695074	bierbauer
-6.164732	big
-7.802092	bigfoot
-7.015423	bigger
-6.899021	biggest
-7.783578	bigotry
-7.738242	bihac
-7.434517	bike
-7.80933	biker
-7.730061	bikes
-7.713197	bikini
-3.445986	bilateral	-0.1210372
-6.164433	bill
-7.635209	bill's
-7.7783	billboard
-7.806979	billboards
-7.772377	billed
-7.547532	billie
-7.622002	billing
-7.686732	billings
-6.568377	billion
-7.678285	billionaire
-7.323823	billions
-7.054875	bills
-6.96556	billy
-7.666102	billy's
-7.484571	bin
-7.673731	bind
-7.578167	binding
-7.731624	bing
-7.818901	binge
-7.824578	bingham
-7.451964	bingo
-7.690905	bio
-7.652029	biography
-7.260139	biological
-7.573259	biology
-8.8269	biopsy	0
-7.47846	bipartisan
-7.776661	birch
-7.05163	bird
-7.761879	birdie
-7.112906	birds	-0.03484514
-7.720668	birmingham
-7.064704	birth
-7.069224	birthday
-7.684042	birthdays
-7.763342	births
-7.703588	biscuit
-7.641755	biscuits
-7.247779	bishop
-7.661352	bishops
-7.822327	bismarck
-7.823678	bison
-3.047932	bit	-0.08889073
-6.986955	bitch
-7.471006	bitches
-7.257318	bite	-0.03484669
-7.531409	bites
-7.555865	biting
-7.315782	bits
-7.728036	bitten
-7.257999	bitter
-7.580526	bitterly
-7.657252	bitterness
-7.779119	biz
-7.519914	bizarre
-3.269543	black	-0.1206391
-7.832585	blackburn
-7.800824	blackened
-7.812944	blackjack
-7.596827	blackmail
-7.829438	blackmailing
-7.823137	blackness
-7.738517	blackout
-7.165405	blacks
-7.760052	bladder	-0.1204921
-7.409444	blade
-7.678192	blades
-7.479415	blah
-7.702294	blaine
-7.37197	blair
-7.818089	blair's
-7.294832	blake
-7.807612	blake's
-7.084547	blame
-7.390481	blamed
-7.664054	blames
-7.539759	blaming
-7.833484	blanca
-7.828269	blanchard
-7.629779	blanche
-7.772469	bland
-7.404634	blank
-7.454263	blanket
-7.574864	blankets
-7.787942	blanks
-7.809149	blasphemy
-7.288715	blast
-7.656693	blasted
-7.686918	blasting
-7.726195	blasts
-7.832046	blatant
-7.587126	blaze
-7.772286	blazed
-7.668336	blazing
-7.732084	bleach
-7.700536	bleak
-7.671592	bled
-7.577129	bleed
-2.424802	bleeding	-0.3900228
-7.818811	bleeds
-7.543836	blend
-7.711904	blended
-7.749434	blending
-7.37824	bless
-7.431638	blessed
-7.505832	blessing
-7.685897	blessings
-7.144363	blew
-7.11624	blind
-7.653335	blinded
-7.787306	blindfolded
-7.791121	blinding
-7.666661	blindly
-7.735117	blindness
-7.790031	blinds
-7.677263	blink
-7.802002	blinked
-7.694611	blinking
-7.597767	bliss
-8.8269	blister	0
-3.144999	blisters	-0.2399005
-7.776843	blitz
-7.3766	blitzer
-7.744208	blizzard
-7.783124	bloated	-0.1208032
-8.8269	bloating	0
-7.800734	bloc
-7.007644	block
-7.692573	blockade
-7.798287	blockbuster
-7.360482	blocked
-7.473492	blocking
-7.305602	blocks
-7.642316	bloke
-7.79348	blokes
-7.564945	blond
-7.478842	blonde
-7.822507	blondes
-7.717533	blondie
-2.385267	blood	-0.3099746
-7.63081	bloodshed
-3.144949	bloody	-0.2038711
-7.478842	bloom
-7.743015	blooming
-7.831417	blooms
-7.631839	blossom
-7.726932	blossoms
-7.810415	blot
-7.760417	blouse
-6.981829	blow
-7.286094	blowing
-7.307444	blown
-7.279488	blows
-6.748637	blue
-7.780303	blueberry
-7.788669	blueprint
-7.786761	blueprints
-7.460964	blues
-7.624907	bluff
-8.8269	bluish	0
-7.772742	blunder
-7.491346	blunt
-7.786215	bluntly
-7.756393	blur
-7.747417	blurred	-0.1207652
-7.822777	blurry
-7.664333	blush
-7.765442	blushed
-7.727116	blushing
-7.350047	bo
-7.817368	boar
-6.702406	board
-7.634647	boarded
-7.523715	boarding
-7.375057	boards
-7.735945	boast
-7.760143	boasted
-7.787579	boasting
-7.795295	boasts
-7.027235	boat
-7.266948	boats
-6.359595	bob
-7.644092	bob's
-7.810686	bobbi
-7.511829	bobbie
-7.810415	bobbing
-7.710334	bobbitt
-7.050844	bobby
-7.718639	bobby's
-7.775294	bobo
-6.967632	bodies
-7.595603	bodily
-2.901813	body	-0.1395151
-7.776297	body's
-7.688958	bodyguard
-7.752732	bodyguards
-7.690719	boeing
-7.797562	bog
-7.667033	bogus
-7.820524	bohemian
-7.5793	boil
-7.583167	boiled
-7.803903	boiler
-7.590989	boiling
-7.750075	boils
-7.370136	bold
-7.59259	boldly
-7.790303	bologna
-7.799918	bolster
-7.529225	bolt
-7.719654	bolted
-7.683856	bolts
-6.93132	bomb
-7.789668	bombardment
-7.754929	bombay
-7.626501	bombed
-7.608862	bomber
-7.635396	bombers
-7.032352	bombing
-7.578262	bombings
-7.221177	bombs
-7.589199	bon
-7.821786	bona
-7.787942	bonaparte
-6.988532	bond
-7.771648	bondage
-7.764712	bonded
-7.660793	bonding
-7.22927	bonds
-3.269851	bone	-0.2305914
-7.114475	bones	-0.03486811
-7.81863	bong
-7.747968	bonnet
-7.38229	bonnie
-7.774565	bono
-7.565323	bonus
-7.792482	bonuses
-7.814119	bony
-7.50945	boo
-7.733187	boob
-7.604445	boobs
-7.751999	booby
-7.78985	boogie
-6.438599	book
-7.495255	booked
-7.703311	booking
-6.788881	books
-7.812222	bookstore
-7.208006	boom
-7.720668	boomer
-7.770006	boomers
-7.671592	booming
-7.772742	boon
-7.567497	boone
-7.392504	boost
-7.774656	boosted
-7.734842	booster
-7.827189	boosters
-7.791847	boosting
-7.42895	boot
-7.819713	booted
-7.252939	booth
-7.79348	booths
-7.275309	boots
-7.628	booty
-7.540233	booze
-7.828719	bordeaux
-6.981139	border
-7.825209	bordered
-7.755021	bordering
-7.813486	borderline
-7.375732	borders
-7.237455	bore
-7.492586	bored
-7.742832	boredom
-7.734383	borg
-7.316557	boring
-7.161395	boris
-6.831765	born	-0.1208032
-7.55009	borne
-7.819623	borough
-7.513542	borrow
-7.440847	borrowed
-7.594473	borrowing
-7.760874	bosco
-6.671035	bosnia
-7.744942	bosnia's
-6.803742	bosnian
-7.68432	bosnians
-7.646333	bosom
-6.89576	boss
-7.620689	bosses
-7.833124	bossy
-7.106433	boston
-7.832854	botched
-3.047711	both	-0.1649069
-7.389615	bother
-7.568158	bothered
-7.646333	bothering
-7.652401	bothers
-7.277253	bottle
-7.683114	bottled
-7.429718	bottles
-3.445878	bottom	-0.2992101
-7.700073	bottoms
-7.828989	boughs
-6.868176	bought
-7.802636	boulder
-7.614121	boulevard
-7.543646	bounce
-7.659116	bounced
-7.619564	bouncing
-7.112416	bound
-7.541087	boundaries
-7.697204	boundary
-7.727208	bounded
-7.829888	bounding
-7.719008	bounds
-7.578828	bounty
-7.730153	bouquet
-7.701739	bourbon
-7.767817	bourgeois
-7.448995	bout
-7.618719	boutros
-7.310353	bow
-7.44219	bowed
-2.901902	bowel	-0.3209994
-7.821065	bowen
-7.714396	bowers
-7.656319	bowing
-7.252939	bowl
-7.504308	bowling
-7.664985	bowls
-7.722327	bowman
-7.627157	bows
-6.823152	box
-7.762976	boxed
-7.615154	boxer
-7.762976	boxers
-7.260723	boxes
-7.451581	boxing
-6.533862	boy
-7.530365	boy's
-7.669732	boycott
-7.474447	boyd
-7.212008	boyfriend
-7.643064	boyfriends
-7.706547	boyle
-6.667758	boys
-7.695259	boys'
-7.826289	bozo
-7.618344	bra
-7.641007	brace
-7.829168	braced
-7.653987	bracelet
-7.733831	bracelets
-7.749892	braces
-7.786761	bracing
-7.829438	bracket
-7.30725	brad
-7.796655	braddock
-7.7454	bradford
-7.418097	bradley
-7.386146	brady
-8.8269	bradycardia	0
-7.812674	brag
-7.721405	bragging
-3.445848	brain	-0.03143559
-7.35024	brains
-7.827189	brainwashed
-7.579111	brake
-7.664985	brakes
-7.752548	bran
-7.170589	branch
-7.412233	branches
-7.185448	brand
-7.760783	branded
-7.763707	brandi
-7.832495	brando
-7.332538	brandon
-7.652401	brands
-7.81177	brandt
-7.5463	brandy
-7.738609	branson
-7.772195	bras
-7.445065	brass
-7.700073	brat
-7.810686	braun
-7.271324	brave
-7.657998	bravely
-7.690256	bravery
-7.777572	braves
-7.458093	bravo
-7.829438	brawl
-7.476263	brazil
-7.678749	brazilian
-7.538526	breach
-7.821696	breached
-7.206933	bread
-7.826379	breadth
-6.536945	break
-7.57543	breakdown
-7.786034	breaker
-7.133099	breakfast
-6.973351	breaking
-7.09613	breaks
-7.549142	breakthrough
-7.704606	breakup
-7.138781	breast
-7.480657	breasts
-3.048078	breath	-0.1634478
-3.269869	breathe	-0.03129565
-7.598144	breathed
-7.769276	breathes
-2.968883	breathing	-0.1400615
-7.760692	breathless
-7.817548	breaths
-7.615717	bred
-7.5793	bree
-7.474447	breed
-7.533877	breeding
-7.674847	breeds
-7.572126	breeze
-7.408771	brenda
-7.642316	brendan
-7.515635	brennan
-7.816465	brenner
-7.39183	brent
-7.637828	bret
-7.639792	brethren
-7.567025	brett
-7.741455	brew
-7.819442	brewer
-7.709873	brewing
-7.804537	brewster
-7.816195	breyer
-6.866792	brian
-7.749526	brian's
-7.796474	brianna
-7.695259	bribe
-7.78985	bribed
-7.735026	bribery
-7.714212	bribes
-7.33128	brick
-7.598614	bricks
-7.770371	bridal
-7.42799	bride
-7.802454	brides
-7.043665	bridge
-7.429238	bridges
-7.572787	bridget
-7.160318	brief
-7.709965	briefcase
-7.690163	briefed
-7.41156	briefing
-7.799375	briefings
-7.21708	briefly
-7.774109	briefs
-7.532263	brigade
-7.710334	briggs
-7.046616	bright
-7.816646	brighten
-7.824849	brightened
-7.64708	brighter
-7.792028	brightest
-7.758039	brightly
-7.78185	brightness
-7.72776	brighton
-8.8269	brij
-7.790485	brilliance
-7.138291	brilliant
-7.693129	brilliantly
-6.408917	bring
-6.871836	bringing
-6.941487	brings
-7.756393	brink
-7.642503	brinkley
-7.79212	brisk
-7.785124	briskly
-7.75868	bristol
-7.639979	brit
-7.150238	britain
-7.587503	britain's
-6.789476	british
-7.822416	britt
-7.670662	brittany
-7.099074	bro
-7.147104	broad
-7.169709	broadcast
-7.446791	broadcasting
-7.748059	broadcasts
-7.823498	broaden
-7.52286	broader
-7.763159	broadly
-7.359516	broadway
-7.801549	broccoli
-7.726563	brock
-7.560879	brody
-6.684141	broke
-6.89576	broken
-7.577601	broker
-7.746409	brokerage
-7.818089	brokered
-7.664054	brokers
-8.8269	bronchial	0
-8.8269	bronchopulmonary	0
-8.8269	bronchospasm	0
-7.283277	bronco
-7.832315	bronson
-7.717902	bronx
-7.527231	bronze
-7.777936	brood
-7.718916	brooding
-7.64624	brook
-7.383736	brooke
-7.413387	brooklyn
-7.380651	brooks
-7.73916	broom
-7.810053	broth
-6.665176	brother
-7.685805	brother's
-7.686454	brotherhood
-6.931616	brothers
-6.423162	brought
-7.600026	brow
-6.615899	brown	-0.1202586
-7.588351	brown's
-7.798015	brownie
-7.760692	brownies
-7.717164	browning
-7.814299	browns
-7.806437	brows
-7.113593	bruce
-7.727208	bruise
-7.652308	bruised
-7.604727	bruises
-3.445982	bruising	-0.2224129
-7.67782	brunch
-7.772195	brunette
-7.519248	bruno
-7.364151	brush
-7.652308	brushed
-7.77183	brushes
-7.685897	brushing
-7.620032	brussels
-7.388458	brutal
-7.625845	brutality
-7.676612	brutally
-7.636706	brute
-7.694241	brutus
-7.568631	bryan
-7.653241	bryant
-7.597956	bryce
-7.804808	bryn
-7.805351	bubba
-7.482566	bubble
-7.577601	bubbles
-7.754197	bubbling
-6.990995	buchanan
-7.730061	buchanan's
-7.211227	buck
-7.568347	bucket
-7.720852	buckets
-7.767817	buckingham
-7.666288	buckle
-7.801005	buckled
-7.717626	buckley
-7.497543	bucks
-7.742465	bucky
-7.226637	bud
-7.667778	buddha
-7.689143	buddhist
-7.422421	buddies
-6.926186	buddy
-6.469766	budget
-7.597956	budgets
-7.705437	buds
-7.808426	buenos
-7.680328	buff
-7.392312	buffalo
-7.763068	buffer
-7.675776	buffet
-7.533308	buffy
-7.317235	bug
-7.795748	bugged
-7.695908	bugger
-7.757216	bugging
-7.831147	buggy
-7.407906	bugs
-6.88459	build
-7.739986	builder
-7.699611	builders
-6.558134	building
-7.07502	buildings
-7.587409	builds
-7.807884	buildup
-6.790764	built
-7.770918	bulb
-7.804899	bulbs
-7.809059	bulgaria
-8.8269	bulging	0
-7.563055	bulk
-7.27317	bull
-7.781486	bulldog
-7.244565	bullet
-7.711073	bulletin
-7.775568	bulletproof
-7.290172	bullets
-7.817729	bullied
-7.768729	bullies
-7.731716	bullock
-7.561352	bulls
-7.211227	bullshit
-7.563338	bully
-7.711904	bullying
-7.577979	bum
-7.789032	bummer
-7.543551	bump
-7.681907	bumped
-7.66573	bumper
-7.727208	bumping
-7.716242	bumps
-7.810686	bumpy
-7.773289	bums
-7.733187	bun
-7.200002	bunch
-7.680606	bundle
-7.814119	bundles
-7.309287	bundy
-7.808426	bungalow
-7.632588	bunk
-7.59805	bunker
-7.794569	bunnies
-7.421364	bunny
-7.757125	buns
-7.226442	burden
-7.779666	burdened
-7.751083	burdens
-7.11977	bureau
-7.515444	bureaucracy
-7.705068	bureaucratic
-7.683114	bureaucrats
-7.477982	burger
-7.621533	burgers
-7.776661	burgess
-7.770371	burglar
-7.804356	burglars
-7.655666	burglary
-7.815382	burgundy
-7.545258	burial
-7.093186	buried
-7.42655	burke
-7.76882	burma
-7.078753	burn
-7.056153	burned
-7.775385	burner
-7.68135	burnett
-3.269838	burning	-0.02931716
-7.195803	burns
-7.407809	burnt
-8.8269	burp	0
-7.756942	burr
-7.737047	burrows
-7.160318	burst
-7.606231	bursting
-7.628	bursts
-7.505927	burt
-7.518393	burton
-7.463739	bury
-7.663867	burying
-7.047108	bus
-7.52191	buses
-6.587171	bush
-7.539	bush's
-7.66126	bushes
-7.814119	busiest
-6.186883	business
-7.02694	businesses
-7.452635	businessman
-7.543551	businessmen
-7.404923	bust
-7.452539	busted
-7.511639	buster
-7.674754	busting
-7.785034	busts
-7.049074	busy
-2.745427	but	-0.1608064
-7.607077	butch
-7.585806	butcher
-7.782942	butchered
-7.826559	butchers
-7.391927	butler
-7.263252	butt
-7.373417	butter
-7.643905	butterflies
-7.608204	butterfly
-7.60059	butters
-7.811138	buttocks
-7.299005	button
-7.818721	buttoned
-7.467565	buttons
-7.678006	butts
-7.828989	buxton
-6.671531	buy
-7.593249	buyer
-7.477887	buyers
-6.998089	buying	-0.1208032
-7.43039	buys
-7.360482	buzz
-7.812764	buzzed
-7.831956	buzzer
-7.67215	buzzing
-3.142613	by	-0.116567
-6.978774	bye	-0.03501077
-7.480752	bye-bye
-7.636425	bypass
-7.750442	byrd
-7.551037	byron
-7.064606	c
-7.619845	c'est
-7.476358	c'mon
-5.858711	c.
-7.153663	c.'s
-7.566363	ca
-7.460294	cab
-7.672801	cabbage
-7.748976	cabell
-7.372452	cabin
-7.131531	cabinet
-7.807884	cabinets
-7.80182	cabins
-7.061657	cable
-7.686547	cables
-7.739436	cabs
-7.811228	cactus
-7.67215	cadet
-7.751907	cadets
-7.776023	cadillac
-7.438354	caesar
-7.782942	caesar's
-7.514969	cafe
-7.769732	cafeteria
-7.706454	caffeine
-7.474543	cage	-0.03487502
-7.817819	caged
-7.753464	cages
-7.65604	cain
-7.717626	caine
-7.566079	cairo
-7.65548	caitlin
-7.218446	cake
-7.524096	cakes
-7.372452	cal
-7.763525	calamity
-7.727024	calcium
-7.762245	calculate
-7.500974	calculated
-7.710334	calculating
-7.697482	calculation
-7.607077	calculations
-7.810596	calculus
-7.787215	caldwell
-7.60106	caleb
-7.484285	calendar
-7.686361	calf
-7.830338	cali
-7.74118	caliber
-6.543511	california
-7.635303	california's
-7.804537	californians
-6.199454	call
-7.789668	callahan
-6.067822	called	-0.1208032
-7.348306	caller
-7.709411	callers
-7.693778	callie
-6.671531	calling
-7.813396	callous
-6.522917	calls
-6.900207	calm
-7.724906	calmed
-7.822867	calming
-7.459816	calmly
-7.702756	calories
-7.729233	calves
-7.500783	calvin
-7.422421	cam
-7.656599	cambodia
-7.825209	cambodian
-7.685805	cambridge
-7.75264	camden
-3.444889	came	-0.1132382
-7.633992	camel
-7.732635	camelot
-7.758223	camels
-6.990404	camera
-7.777572	cameraman
-7.154348	cameras
-7.457423	cameron
-7.752732	camilla
-7.604915	camille
-7.769368	camouflage
-6.902282	camp
-6.442483	campaign
-7.761971	campaigned
-7.48037	campaigning
-7.37168	campaigns
-7.375539	campbell
-7.823227	campbell's
-7.743199	camped
-7.5517	camping
-7.318301	camps
-7.459146	campus
-2.704966	can	-0.04083745
-6.100962	can't
-7.118104	canada
-7.78185	canada's
-7.258485	canadian
-7.660514	canadians
-7.576374	canal	-0.03486438
-7.800734	canals
-7.820524	canary
-7.480465	cancel
-7.402902	canceled
-7.79466	canceling
-7.651282	cancelled
-3.445848	cancer	-0.03497124
-8.8269	cancerous	0
-7.78885	cancers
-7.721036	candace
-7.788759	candice
-7.683021	candid
-7.651375	candidacy
-6.864418	candidate
-6.928753	candidates
-7.598709	candle
-7.49678	candles
-7.812854	candor
-7.135744	candy
-7.61215	cane
-7.782942	canine
-7.684969	canned
-7.489533	cannon
-7.776114	cannons
-3.44564	cannot	-0.1206851
-7.737599	canoe
-7.724353	canon
-7.769915	canopy
-7.559271	cans
-3.445988	cant	-0.1206219
-7.817999	canton
-7.594379	canvas
-7.803179	canvass
-7.829798	canvassing
-7.551983	canyon
-7.080422	cap
-7.585995	capabilities
-7.52191	capability
-7.147104	capable
-7.197756	capacity
-7.448708	cape
-6.756173	capital
-7.665544	capitalism
-7.736496	capitalist
-7.765808	capitals
-6.96132	capitol
-7.775385	capped
-7.795839	cappuccino
-7.497448	caps
-7.754197	capsule
-6.59592	captain
-7.782487	captain's
-7.632308	captains
-7.622002	captive
-7.808155	captives
-7.769824	captivity
-7.356425	capture
-7.22264	captured
-7.80173	captures
-7.730889	capturing
-6.487984	car	-0.1143465
-7.739252	car's
-7.613652	cara
-7.793118	caramel
-7.766629	caravan
-7.432214	carbon
-7.788759	carcass
-6.899614	card
-7.721682	cardboard
-7.651375	cardiac
-7.481421	cardinal
-7.822777	cardinals
-7.828899	cardio
-7.099761	cards
-6.286426	care
-7.439313	cared
-6.851954	career
-7.535111	careers
-7.057136	careful
-7.01562	carefully
-7.57864	careless
-7.672337	carelessly
-7.321305	cares
-7.795839	caress
-7.803088	caretaker
-7.701276	carey
-7.323436	cargo
-7.587597	caribbean
-7.427894	caring
-7.003803	carl
-7.777936	carl's
-7.4733	carla
-7.815022	carlisle
-7.659303	carlo
-7.252549	carlos
-7.684227	carlson
-7.603129	carlton
-7.636238	carly
-7.478651	carmen
-7.799646	carmichael
-7.809602	carmine
-7.738884	carnage
-7.827729	carnal
-7.772469	carnegie
-7.650722	carnival
-7.201076	carol
-7.733831	carole
-7.103686	carolina
-7.333216	caroline
-7.564567	carolyn
-7.623595	carpenter
-7.453784	carpet
-7.750258	carpets
-7.753098	carr
-7.542603	carriage
-7.775932	carriages
-7.415694	carrie
-6.886172	carried
-7.396453	carrier
-7.512115	carriers
-7.279779	carries
-7.751724	carroll
-7.675404	carrot
-7.663774	carrots
-6.876977	carry
-6.941586	carrying
-6.837704	cars
-7.514969	carson
-7.448324	cart
-7.650722	cartel
-6.963293	carter
-7.667871	carter's
-7.58477	cartoon
-7.682742	cartoons
-7.831057	cartridges
-7.717994	carts
-7.776661	cartwright
-7.823227	caruso
-7.767268	carve
-7.47483	carved
-7.657158	carver
-7.689329	carving
-7.636893	cary
-7.774292	casa
-7.766994	casanova
-6.039869	case	-0.1120875
-8.8269	caseation	0
-6.645906	cases	-0.03484158
-7.216886	casey
-7.769824	casey's
-6.914532	cash
-7.814119	cashed
-7.825659	cashing
-7.784306	cashmere
-7.736037	casing
-7.423573	casino
-7.666847	casinos
-7.732084	casket
-7.774292	casper
-7.623595	cass
-7.690256	cassandra
-7.819803	casserole
-7.820434	cassette
-7.608581	cassidy
-7.593626	cassie
-6.969012	cast
-7.778574	caste
-7.790303	castillo
-7.41579	casting
-7.192091	castle
-7.744575	castles
-7.337087	castro
-7.796111	castro's
-7.678564	casts
-7.513827	casual
-7.691832	casually
-7.373127	casualties
-7.648948	casualty
-7.053105	cat
-7.798831	cat's
-7.80707	catalina
-7.675404	catalog
-7.646894	catalogue
-7.602941	catastrophe
-7.721313	catastrophic
-6.987645	catch
-7.784033	catcher
-7.463356	catches
-7.337667	catching
-7.702294	cate
-7.669546	categories
-7.385085	category
-7.704976	catering
-7.756027	caterpillar
-7.825659	catfish
-7.60952	cathedral
-7.208104	catherine
-7.142306	catholic
-7.517917	catholics
-7.467756	cathy
-7.796111	cato
-7.291337	cats
-7.310935	cattle	-0.03481946
-7.693129	caucasian
-7.542603	caucus
-7.738242	caucuses
-6.745959	caught
-6.672227	cause	-0.1120995
-6.820181	caused	-0.1206815
-7.113396	causes
-7.17186	causing
-7.458858	caution
-7.798287	cautioned
-7.489151	cautious
-7.62172	cautiously
-7.765808	cavalier
-7.598803	cavalry
-7.817999	cavanaugh
-7.383832	cave
-7.812944	caved
-7.635303	caves
-7.733739	caviar
-8.8269	cavitations	0
-3.445987	cavity	-0.2224556
-7.736404	cc
-7.585335	cd
-7.194924	cease
-7.397127	ceased
-7.815382	ceasefire
-7.713658	ceases
-7.645586	cecil
-7.740262	cecilia
-7.736404	cedar
-7.591648	cedras
-7.790485	cedric
-7.451294	ceiling
-7.410695	celebrate
-7.429238	celebrated
-7.808517	celebrates
-7.454072	celebrating
-7.399438	celebration
-7.707471	celebrations
-7.503927	celebrities
-7.347919	celebrity
-7.809149	celery
-7.684691	celeste
-7.699611	celestial
-7.595791	celia
-7.801005	celine
-6.993951	cell
-7.722419	cellar
-7.748518	cellmark
-7.768911	cellphone
-7.216886	cells
-7.522195	cellular
-3.446006	cellulitis	-0.2221314
-7.801096	celtic
-7.607641	cement
-7.488675	cemetery
-7.728404	censorship
-7.817097	censure
-7.769732	census
-7.324598	cent
-3.445695	center	-0.2223461
-7.667592	centered
-7.832315	centerpiece
-7.282791	centers
-8.8269	centigrade
-6.820181	central	-0.1202585
-7.37824	centre
-7.758131	centres
-7.141817	cents
-7.38682	centuries
-6.977492	century
-7.824218	ceramic
-7.614591	cereal
-3.446006	cerebellar	-0.1204239
-7.725458	cerebral	-0.1206947
-7.750625	ceremonial
-7.564	ceremonies
-7.182125	ceremony
-6.569571	certain
-6.37833	certainly	-0.03475364
-7.573825	certainty
-3.44598	certificate	-0.03280812
-7.739986	certificates
-7.821245	certification
-7.650255	certified
-3.269907	cervical	-0.1196422
-7.723893	cesar
-8.8269	cessation	0
-7.596638	cetera
-7.709503	cha
-7.490106	chad
-7.769368	chadwick
-7.15337	chain
-7.610365	chained
-7.513351	chains
-7.105746	chair
-6.773026	chairman
-7.380555	chairs
-7.662004	chalk
-6.960728	challenge
-7.403384	challenged
-7.608486	challenger
-7.333893	challenges
-7.471198	challenging
-7.209958	chamber
-7.802545	chamberlain
-7.343181	chambers
-7.516396	champ
-7.365793	champagne
-7.185839	champion
-7.5499	champions
-7.426454	championship
-7.586938	championships
-7.635022	chan
-6.65733	chance
-7.536439	chancellor
-7.207519	chances
-7.589199	chandler
-7.789759	chanel
-7.557096	chang
-3.047895	change	-0.2483333
-3.445733	changed	-0.307968
-3.144902	changes	-0.2138368
-6.977985	changing
-7.152685	channel
-7.397416	channels
-7.787215	channing
-7.687938	chant
-7.825659	chanted
-7.671592	chanting
-7.308317	chaos
-7.703311	chaotic
-7.52324	chap
-7.52856	chapel
-7.705715	chaplain
-7.512495	chapman
-7.653055	chaps
-7.234921	chapter
-7.692295	chapters
-7.780212	char
-6.773026	character
-7.572409	characteristic
-7.467182	characteristics
-7.726563	characterize
-7.640166	characterized
-7.18193	characters
-7.755386	charcoal
-6.779269	charge
-6.949777	charged
-6.799185	charges
-7.420691	charging
-7.772833	chariot
-7.829438	charisma
-7.793843	charismatic
-7.600402	charitable
-7.649508	charities
-7.252939	charity
-7.765169	charlene
-6.760535	charles
-7.698408	charleston
-7.554918	charley
-6.80493	charlie
-7.571087	charlie's
-7.249629	charlotte
-7.76736	charlotte's
-7.349466	charm
-7.675776	charmed
-7.354395	charming
-7.641849	charms
-7.785034	charred
-7.375154	chart
-7.530839	charter
-7.471293	charts
-7.156795	chase
-7.5163	chased
-7.823137	chases
-7.311419	chasing
-7.7454	chastity
-7.406559	chat
-7.807522	chateau
-7.617687	chatter
-7.788759	chattering
-7.624064	chatting
-7.805803	chatty
-7.792028	chauffeur
-7.778938	chavez
-7.603693	che
-7.170491	cheap
-7.439697	cheaper
-8.8269	cheapest	0
-7.55823	cheat
-7.557758	cheated
-7.458858	cheating
-7.78776	cheats
-7.683299	chechen
-7.572693	chechnya
-3.047986	check	-0.2582986
-7.089652	checked
-7.206738	checking
-7.770918	checkpoint
-7.817368	checkpoints
-7.149846	checks
-7.828089	cheddar
-7.512209	cheek
-7.56069	cheeks
-7.809149	cheeky
-7.395972	cheer
-7.626782	cheered
-7.604445	cheerful
-7.630528	cheerfully
-7.513732	cheering
-7.713012	cheerleader
-7.725827	cheerleaders
-7.759137	cheerleading
-7.307056	cheers
-7.786579	cheery
-7.228099	cheese
-7.762428	cheesy
-7.380265	chef
-7.755386	chefs
-7.547153	chelsea
-7.114769	chemical	-0.1208124
-7.367917	chemicals
-7.787851	chemist
-7.469573	chemistry
-7.75868	chemo
-7.736312	chemotherapy
-7.59692	chen
-7.732728	cheney
-7.703681	cher
-7.829438	cheri
-7.799103	cherie
-7.749892	cherish
-7.71947	cherished
-7.829168	chernobyl
-7.825749	cherokee
-7.787851	cherries
-7.444012	cherry
-7.506594	cheryl
-7.475116	chess
-2.516599	chest	-0.2817205
-7.539474	chester
-7.694148	chestnut
-7.809602	chests
-7.702108	chet
-7.761879	chevy
-7.615905	chew
-7.715319	chewed
-7.581847	chewing	-0.0347563
-7.806617	cheyenne
-7.553972	chi
-7.818811	chiapas
-7.707286	chic
-6.853635	chicago
-7.755295	chicago's
-7.313067	chick
-7.056841	chicken
-7.478364	chickens
-7.434517	chicks
-7.722327	chico
-6.525603	chief
-7.463452	chiefly
-7.427511	chiefs
-6.513265	child
-7.545352	child's
-7.301624	childhood
-7.661819	childish
-6.230777	children
-7.267143	children's
-7.667033	chile
-7.832315	chiles
-7.626032	chili
-7.386146	chill
-7.720484	chilled
-7.653241	chilling
-3.269896	chills	-0.1496041
-7.710611	chilly
-7.752823	chimney
-7.806617	chimp
-7.778846	chimps
-7.430102	chin
-6.797996	china
-7.492394	china's
-7.78885	chinatown
-6.864715	chinese
-7.805441	ching
-7.218251	chip
-7.746134	chipped
-7.298714	chips
-7.827009	chirac
-7.803813	chivalry
-7.332538	chloe
-7.786579	chlorine
-7.669081	cho
-7.252744	chocolate
-7.729324	chocolates
-7.796655	choi
-6.78254	choice
-7.238137	choices
-7.602847	choir
-7.640072	choke
-7.604352	choked
-7.616561	choking
-7.731533	cholera
-7.64624	cholesterol
-7.014044	choose
-7.553498	chooses
-7.448133	choosing
-7.494206	chop
-7.832315	chopin
-7.611492	chopped
-7.682928	chopper
-7.720852	chopping
-7.747968	chops
-7.734015	chord
-7.810234	chords
-7.799556	choreography
-7.762428	chores
-8.8269	choroiditis	0
-7.586184	chorus
-7.086707	chose
-7.241254	chosen
-7.624814	chow
-6.935466	chris
-7.802907	chrissy
-7.242813	christ
-7.784852	christ's
-6.948198	christian
-7.505832	christiane
-7.587974	christianity
-7.460964	christians
-7.610741	christie
-7.444587	christina
-7.381615	christine
-6.857691	christmas
-7.028416	christopher
-7.641849	christy
-7.586089	chronic
-7.725182	chronicle
-7.823588	chronicles
-7.611492	chrysler
-7.775568	chu
-7.733463	chubby
-7.069421	chuck
-7.753647	chuck's
-7.824578	chuckle
-7.721774	chuckled
-7.809692	chuckles
-7.705437	chum
-7.783306	chump
-7.747051	chung
-7.709411	chunk
-7.705992	chunks
-7.799828	chunky
-6.744472	church
-7.332635	churches
-7.653987	churchill
-7.823227	churning
-7.794207	chute
-7.502689	cia
-7.758863	cicely
-7.787215	cicero
-7.787034	cid
-7.81466	cider
-7.595226	cigar
-7.327407	cigarette
-7.257513	cigarettes
-8.8269	cigarrettes
-7.605291	cigars
-7.662843	cincinnati
-7.684876	cinderella
-7.460581	cindy
-7.643531	cinema
-7.67215	cinnamon
-7.816916	circa
-7.17538	circle
-7.694889	circled
-7.391734	circles
-7.618532	circling	-0.03477745
-7.34879	circuit
-7.664985	circuits
-7.627157	circular
-7.783578	circulated
-7.743566	circulating
-7.617969	circulation
-7.558136	circumstance
-7.066964	circumstances
-7.675776	circumstantial
-7.401266	circus
-7.756027	citadel
-7.709319	cite
-7.505451	cited
-7.815292	cites
-6.929839	cities
-7.668615	citing
-7.18535	citizen
-6.949777	citizens
-7.644465	citizenship
-7.823588	citrus
-6.263889	city
-7.376697	city's
-7.642222	civic
-6.783927	civil
-7.234337	civilian
-7.253425	civilians
-7.766721	civility
-7.387206	civilization
-7.772195	civilizations
-7.602753	civilized
-7.613183	clad
-6.930727	claim
-7.106629	claimed
-7.332732	claiming
-6.891411	claims
-7.118397	claire
-7.811409	claire's
-7.71947	clam
-7.718455	clamp
-7.772742	clams
-7.521149	clan
-7.630435	clancy
-7.800009	clandestine
-7.810053	clans
-7.678192	clap
-7.739895	clapped
-7.711997	clapping
-7.480657	clara
-7.551889	clare
-7.430199	clarence
-7.729416	clarice
-7.709688	clarify
-7.661819	clarity
-6.80493	clark
-7.666661	clark's
-7.62219	clarke
-7.651095	clash
-7.829258	clashed
-7.800009	clashes
-7.817638	clasp
-7.746226	clasped
-6.639449	class
-7.201759	classes
-7.195803	classic
-7.519629	classical
-7.718086	classics
-7.803632	classification
-7.452252	classified
-7.782942	classmates
-7.553498	classroom
-7.782487	classrooms
-7.703681	classy
-7.557096	claude
-7.456753	claudia
-7.768729	claus
-7.588917	clause
-7.673917	claw
-7.657345	claws
-3.445937	clay	-0.3079284
-7.583355	clayton
-6.780162	clean
-7.356231	cleaned
-7.580809	cleaner
-7.803722	cleaners
-7.239209	cleaning
-7.785215	cleans
-7.807884	cleanse
-7.829888	cleansed
-7.63081	cleansing
-7.694148	cleanup
-6.453537	clear	-0.1206505
-7.592496	clearance
-7.182712	cleared
-7.653055	clearer
-7.462495	clearing
-6.663189	clearly
-7.648481	clears
-7.757125	clem
-7.80725	clemency
-7.78776	clemens
-7.800009	clement
-7.828359	clenched
-7.63895	cleo
-7.71698	cleopatra
-7.739436	clergy
-7.798378	clerical
-7.410214	clerk	-0.1137088
-7.658277	clerks
-7.366855	cleveland
-7.377083	clever
-7.80182	cliche
-7.538336	click
-7.781304	clicking
-7.815563	clicks
-7.130846	client
-7.799556	clientele
-7.171763	clients
-7.407713	cliff
-7.656785	clifford
-7.700999	cliffs
-7.338151	climate
-7.771922	climax
-7.368592	climb
-7.409829	climbed
-7.375154	climbing
-7.794207	climbs
-7.726932	cling
-7.566457	clinging
-7.266268	clinic
-7.532168	clinical
-7.534256	clinics
-7.644652	clint
-6.075808	clinton
-6.887358	clinton's
-7.583639	clintons
-7.518297	clip
-7.751175	clipped
-7.689143	clips
-7.566457	clive
-7.62097	cloak
-7.823498	cloaked
-7.268212	clock
-7.796293	clocked
-7.702294	clocks
-7.778665	clogged
-7.699888	clone
-7.80933	clones
-7.754837	cloning
-3.445559	close	-0.3021714
-6.784522	closed
-7.147594	closely
-7.003113	closer
-7.505641	closes
-7.466608	closest
-7.448133	closet
-7.825119	closets
-7.042387	closing
-7.55293	closure
-7.453497	cloth
-7.629498	clothed
-6.924705	clothes
-7.162079	clothing
-7.286676	cloud
-7.769276	clouded
-7.327891	clouds
-7.728589	cloudy
-7.716518	clout
-7.797472	clover
-7.481229	clown
-7.657531	clowns
-6.82236	club
-7.300848	clubs
-7.50745	clue
-7.814119	clueless
-7.507165	clues
-7.653055	clumsy
-7.663402	clung
-7.624814	cluster
-7.732635	clusters
-7.751175	clutch
-7.789305	clutched
-7.726748	clutching
-7.46393	clyde
-7.810686	cnn
-7.016506	co
-6.970097	coach
-7.797562	coached
-7.549616	coaches
-7.639137	coaching
-7.39077	coal
-7.153076	coalition
-7.711073	coarse
-7.021428	coast
-7.688216	coastal
-7.261599	coat
-7.792482	coated
-7.819803	coating
-7.561541	coats
-7.611116	cobb
-7.726932	cobra
-7.757583	coca
-7.346276	cocaine
-7.135254	cochran
-7.821876	cochran's
-7.413867	cock
-7.77338	cocked
-7.767451	cockpit
-7.786851	cockroaches
-7.758589	cocks
-7.477505	cocktail
-7.693036	cocktails
-7.782214	cocky
-7.707655	coco
-7.700813	cocoa
-7.668894	coconut
-7.831417	coconuts
-7.662004	cod
-6.913248	code
-7.743199	coded
-7.432693	codes
-7.504308	cody
-7.804265	coercion
-6.961517	coffee
-7.558798	coffin
-7.775476	coffins
-3.269895	cognitive	-0.1201429
-7.485812	cohen
-7.78667	coherent
-7.769732	coil
-7.793571	coils
-7.460964	coin
-7.832944	coincide
-7.502213	coincidence
-7.580809	coins
-7.481898	coke
-7.573637	cokie
-7.663589	cola
-7.671406	colby
-6.745563	cold	-0.1204921
-7.795385	cold-blooded
-7.777207	colder
-7.696093	coldly
-7.299781	cole
-7.805622	cole's
-7.580243	coleman
-7.119574	colin
-7.780303	collaboration
-7.303759	collapse
-7.321692	collapsed
-7.757216	collapses
-7.728036	collapsing
-7.403672	collar
-7.745217	collars
-7.641381	collateral
-7.453593	colleague
-7.200002	colleagues
-7.308026	collect
-7.17186	collected
-7.364635	collecting
-7.036189	collection
-7.617406	collections
-7.56381	collective
-7.737047	collectively
-7.628749	collector
-7.677077	collectors
-7.721313	collects
-7.655946	colleen
-6.775206	college
-7.588822	colleges
-7.831686	collide
-7.828269	collided
-7.709688	collier
-7.390578	collins
-7.621346	collision
-7.720115	cologne
-7.694889	colombia
-7.687567	colombian
-7.733463	colon
-6.872825	colonel
-7.594191	colonial
-7.617969	colonies
-7.769368	colonists
-7.506498	colony
-3.269823	color	-0.1388431
-7.320917	colorado
-3.048088	colored	-0.1166024
-7.675962	colorful
-7.717164	coloring	0
-7.247779	colors
-7.797472	colossal
-7.64596	coloured
-7.736772	colt
-7.372066	columbia
-7.51649	columbus
-7.283374	column
-7.520484	columnist
-7.528275	columns
-7.474351	com
-7.629873	coma	-0.03491458
-7.661352	comb
-7.198244	combat
-7.244858	combination
-7.69109	combinations
-7.585335	combine
-7.186718	combined
-7.815473	combines
-7.79212	combing
-7.712551	combining
-7.762428	combo
-7.833214	combs
-2.667495	come	-0.2111417
-7.614685	comeback
-7.689885	comedian
-7.815473	comedians
-7.812132	comedies
-7.269962	comedy
-3.269502	comes	-0.2277636
-7.625376	comet
-7.79348	comets
-7.256734	comfort
-7.134372	comfortable
-7.631371	comfortably
-7.772013	comforted
-7.674289	comforting
-7.78985	comforts
-7.827639	comfy
-7.388266	comic
-7.660607	comics
-7.675219	comin'
-6.120624	coming
-6.989615	command
-7.768364	commandant
-7.405597	commanded
-6.806218	commander
-7.504975	commanders
-7.462017	commanding
-7.777572	commando
-7.821245	commandos
-7.465365	commands
-7.66275	commence
-7.501545	commenced
-7.796293	commences
-7.748976	commencing
-7.793753	commend
-7.815924	commended
-6.919372	comment
-7.648294	commentary
-7.486384	commentator
-7.813848	commentators
-7.622939	commented
-7.769732	commenting
-7.058217	comments
-7.299781	commerce
-7.015817	commercial
-7.830248	commercially
-7.483521	commercials
-6.926976	commission
-7.678842	commissioned
-7.256539	commissioner
-7.759869	commissioners
-7.714766	commissions
-7.257999	commit
-7.108198	commitment
-7.597956	commitments
-7.750167	commits
-6.889533	committed
-6.61083	committee
-7.819803	committee's
-7.489151	committees
-7.484476	committing
-7.691647	commodities
-7.660793	commodity
-7.795748	commodore
-6.808397	common	-0.120418
-7.457518	commonly
-7.748884	commonplace
-7.649508	commonwealth
-7.439985	communicate
-7.615435	communicated
-7.627906	communicating
-7.17802	communication	-0.0348474
-7.141131	communications
-7.738242	communion
-7.527136	communism
-7.212495	communist
-7.517727	communists
-7.160612	communities
-6.538538	community
-7.813306	commute
-7.71698	commuter
-7.770006	como
-7.793118	comp
-7.624158	compact
-6.594528	companies
-7.364055	companion
-7.558609	companions
-7.727116	companionship
-6.383811	company
-7.367144	company's
-7.673173	comparable
-7.823498	comparative
-7.726011	comparatively
-7.365793	compare
-6.999468	compared
-7.760326	compares
-7.614215	comparing
-7.444012	comparison
-7.726932	comparisons
-7.689792	compartment
-7.685897	compass
-7.462399	compassion
-7.698222	compassionate
-7.718086	compatible
-7.777572	compel
-7.521149	compelled
-7.50945	compelling
-7.760326	compensate
-7.818721	compensated
-7.454167	compensation
-7.321305	compete
-7.799918	competence
-7.561636	competent
-7.438834	competing
-6.960531	competition
-7.772469	competitions
-7.276475	competitive
-7.690627	competitor
-7.518582	competitors
-7.735026	compiled
-7.424822	complain
-7.326245	complained
-7.384218	complaining
-7.712735	complains
-7.378144	complaint
-7.321789	complaints
-7.819172	complement
-3.445851	complete	-0.1190612
-7.192189	completed
-6.746257	completely
-7.803088	completes
-7.714858	completing
-7.752274	completion
-7.113004	complex
-7.721129	complexion
-7.748426	complexity
-7.581092	compliance
-7.832406	complicate
-7.213471	complicated
-7.811228	complication
-7.566835	complications
-7.719746	complied
-7.585241	compliment
-7.784852	complimentary
-7.595979	compliments
-7.55577	comply
-7.562676	component
-7.554067	components
-7.81466	compose
-7.369943	composed
-7.669825	composer
-7.822597	composers
-7.793118	composing
-7.540233	composite
-7.535585	composition
-7.814479	compositions
-7.830068	composure
-7.178607	compound
-7.802273	compounded
-7.624345	compounds
-7.817368	comprehend
-7.817548	comprehension
-7.485335	comprehensive
-7.720852	compressed
-7.754197	compression
-7.769368	comprised
-7.798287	comprising
-7.127513	compromise
-7.557096	compromised
-7.733096	compromises
-7.744575	compromising
-7.826559	compulsion
-7.787124	compulsive
-7.750258	compuserve
-6.710842	computer
-7.820163	computerized
-7.128493	computers
-7.825299	computing
-7.422805	comrade
-7.530839	comrades
-7.283859	con
-7.696186	conan
-7.742557	conceal
-7.455412	concealed
-7.739252	concealing
-7.659582	concede
-7.674289	conceded
-7.820794	conceit
-7.786215	conceivable
-7.790758	conceive
-7.53027	conceived
-7.444778	concentrate
-7.559744	concentrated
-7.706916	concentrating	-0.03477475
-7.452539	concentration	-0.03481892
-7.244176	concept
-7.599649	conception
-7.823498	conceptions
-7.684691	concepts
-6.841167	concern
-6.720566	concerned
-7.151412	concerning
-7.012666	concerns
-7.243397	concert
-7.636144	concerts
-7.691276	concession
-7.56967	concessions
-7.518487	conclude
-7.261015	concluded
-7.662377	concludes
-7.776479	concluding
-7.223127	conclusion
-7.469764	conclusions
-7.755569	conclusive
-7.792755	concord
-7.348983	concrete
-7.780667	concussion
-7.639137	condemn
-7.757491	condemnation
-7.432886	condemned
-7.762794	condemning
-7.809149	condescending
-6.923915	condition
-7.833573	conditional
-7.813757	conditioned
-7.749892	conditioning
-6.911173	conditions
-7.681814	condo
-7.828359	condolences
-7.66815	condom
-7.52172	condoms
-7.0534	conduct
-7.189259	conducted
-7.469764	conducting
-7.656785	conductor
-7.815022	conducts
-7.80933	conduit
-7.718824	cone
-7.826289	cones
-7.694333	confederate
-7.822597	confederation
-7.819623	confer
-6.745166	conference
-7.609896	conferences
-7.756942	conferred
-7.52457	confess
-7.326923	confessed
-7.829618	confesses
-7.757399	confessing
-7.403865	confession
-7.703311	confessions
-7.730429	confided
-6.985378	confidence
-7.222445	confident
-7.468808	confidential
-7.694148	confidentiality
-7.755844	confidently
-7.780121	configuration
-7.829528	confine
-7.489533	confined
-7.770736	confinement
-7.28007	confirm
-7.412041	confirmation
-7.040911	confirmed
-7.64708	confirming
-7.483616	confirms
-7.655573	confiscated
-7.010598	conflict
-7.688865	conflicting
-7.480083	conflicts
-7.824038	conform
-8.8269	conformation	0
-7.819352	confounded
-7.566835	confront
-7.43327	confrontation
-7.495732	confronted
-7.701739	confronting
-7.721405	confuse
-7.265587	confused
-7.519629	confusing
-7.33215	confusion	-0.03487669
-8.8269	confusional	0
-3.44599	congestion	-0.0232575
-8.8269	congestive	0
-7.820163	conglomerate
-7.735945	congratulate
-7.786125	congratulated
-7.115554	congratulations
-7.708025	congregation
-6.364877	congress
-7.001537	congressional
-6.936848	congressman
-7.601718	congressmen
-7.632963	congresswoman
-7.755478	conjecture
-8.8269	conjugate	0
-7.799012	conjunction
-8.8269	conjunctiva	0
-8.8269	conjunctivae	0
-3.446006	conjunctival	-0.1206573
-3.446006	conjunctivitis	-0.03295225
-7.45704	connect
-7.127513	connected
-7.360964	connecticut
-7.519533	connecting
-7.046419	connection
-7.388169	connections
-7.692573	connects
-7.798922	conner
-7.437203	connie
-7.373803	connor
-7.826649	connors
-7.738701	conquer
-7.599273	conquered
-7.79738	conquering
-7.704976	conquest
-7.480847	conrad
-7.829888	conroy
-7.733555	cons
-7.368978	conscience
-7.805351	conscientious
-7.358743	conscious
-7.744483	consciously
-3.144984	consciousness	-0.2399794
-7.806527	consecrated
-7.653801	consecutive
-7.458093	consensus
-7.383447	consent
-7.648668	consented
-7.593814	consequence
-7.268212	consequences
-7.63867	consequently
-7.6607	conservation
-6.952145	conservative
-7.355941	conservatives
-6.872429	consider
-7.36782	considerable
-7.417136	considerably
-7.829618	considerate
-7.340086	consideration
-7.642503	considerations
-6.77134	considered
-7.045043	considering
-7.496113	considers
-7.675125	consist
-8.8269	consistant	0
-7.498306	consisted
-7.72076	consistency	0
-7.185545	consistent
-7.576658	consistently
-7.484667	consisting
-7.376986	consists
-7.729969	consolation
-7.672709	console
-7.821245	consolidated
-7.823498	consortium
-7.745676	conspicuous
-7.828179	conspiracies
-7.200588	conspiracy
-7.782669	conspired
-7.79738	conspiring
-7.574298	constable
-7.670941	constance
-7.293861	constant
-7.775294	constantine
-7.141621	constantly
-8.8269	constipation	0
-7.675869	constituency
-7.621346	constituents
-7.626501	constitute
-7.674847	constituted
-7.673266	constitutes
-7.116142	constitution
-7.195998	constitutional
-7.745676	construct
-7.537577	constructed
-7.084448	construction
-7.613746	constructive
-7.757765	consul
-7.761879	consulate
-7.554635	consult
-7.413483	consultant
-7.664426	consultants
-7.684042	consultation
-7.813306	consultations
-7.599273	consulted
-7.520579	consulting
-7.701183	consume
-7.529225	consumed
-7.125553	consumer
-7.204102	consumers
-7.689051	consuming
-7.525331	consumption
-6.904258	contact
-7.4668	contacted
-7.811138	contacting
-7.363283	contacts
-7.734383	contagious
-7.29357	contain
-7.175869	contained
-7.60811	container
-7.683206	containers
-7.260042	containing
-7.633992	containment
-7.205176	contains
-7.520579	contaminated	-0.1205659
-7.46173	contamination
-7.822327	contemplate
-7.728957	contemplated
-7.7319	contemplating
-7.50707	contemporary
-7.484762	contempt
-7.815924	contemptuously
-7.671685	contend
-7.798287	contended
-7.793662	contender
-7.813306	contenders
-7.827189	contending
-7.768911	contends
-7.237358	content
-7.728772	contented
-7.665544	contention
-7.797109	contentious
-7.560501	contents
-7.203419	contest
-7.813938	contestant
-7.710611	contestants
-7.800009	contested
-7.702664	contests
-7.307541	context
-7.609896	continent
-7.624721	continental
-7.817548	continents
-7.764164	contingency
-7.653241	contingent
-7.441135	continually
-7.761879	continuation
-6.530877	continue
-6.782738	continued
-6.804039	continues
-7.086215	continuing
-7.780667	continuity
-7.634553	continuous	-0.1179179
-7.621908	continuously
-7.655946	contra
-7.775568	contraband
-6.920557	contract
-7.605197	contracted
-7.770371	contracting
-7.828449	contraction
-7.655014	contractor
-7.620502	contractors
-7.336506	contracts
-7.780849	contradict
-7.728036	contradiction
-7.826199	contradictions
-7.732176	contradictory
-7.382675	contrary
-7.461921	contrast	-0.03479861
-7.820073	contrasted
-7.451103	contribute
-7.419634	contributed
-7.767907	contributes
-7.623595	contributing
-7.420691	contribution
-7.420403	contributions
-7.816195	contributor
-7.765169	contributors
-7.667406	contrived
-6.442483	control	-0.03484101
-7.168927	controlled
-7.769459	controller
-7.764164	controllers
-7.409252	controlling
-7.179291	controls
-7.262085	controversial
-7.232778	controversy
-7.804718	convened
-7.620314	convenience
-7.575336	convenient
-7.725827	conveniently
-7.800824	convent
-7.041108	convention
-7.384796	conventional
-7.666195	conventions
-6.933196	conversation
-7.298326	conversations
-7.777025	converse
-7.604069	conversion
-7.637361	convert
-7.525141	converted
-7.747051	convertible
-7.782032	converting
-7.762976	converts
-7.661725	convey
-7.640166	conveyed
-7.52457	convict
-7.159829	convicted
-7.305892	conviction
-7.540802	convictions
-7.726563	convicts
-7.293278	convince
-7.076788	convinced
-7.496209	convincing
-7.559744	convoy
-7.716426	convoys
-8.8269	convulsions	0
-7.759411	conway
-7.11575	cook
-7.433846	cooked
-7.484285	cookie
-7.447749	cookies
-7.204493	cooking
-7.648761	cooks
-6.911272	cool
-7.731164	cooled
-7.605949	cooler
-7.61168	cooling
-7.695723	coolly
-7.815022	coolness
-7.607641	coop
-7.214934	cooper
-7.713381	cooper's
-7.479224	cooperate
-7.828269	cooperated
-7.656226	cooperating
-7.225273	cooperation
-7.624721	cooperative
-7.693963	coordinate
-7.732176	coordinated
-7.551037	coordinates
-7.800824	coordinating
-7.741547	coordination
-7.679864	coordinator
-7.139564	cop
-7.567592	cope
-7.643905	copied
-7.318301	copies
-7.695074	coping
-7.426454	copper
-7.115161	cops
-7.049861	copy
-7.736037	copying
-7.721313	copyright
-7.777025	cor
-7.60952	cora
-7.619282	coral
-7.576468	cord
-7.772742	cordial
-7.817458	cordially
-7.809149	cords
-7.27006	core
-7.701276	corey
-7.761879	corinne
-7.770006	cork
-7.247779	corn
-8.8269	corneal	0
-7.796837	cornelius
-7.742832	cornell
-7.097995	corner
-7.750625	cornered
-7.518297	corners
-7.78567	corny
-7.600778	coroner
-7.673266	coroner's
-7.795295	corp
-7.426454	corporal
-7.055268	corporate
-7.156991	corporation
-7.359323	corporations
-7.325664	corps
-7.544784	corpse
-7.614215	corpses
-3.445669	correct	-0.2228596
-7.560784	corrected
-7.784124	correcting
-7.556527	correction
-7.762794	correctional
-7.704328	corrections
-7.337474	correctly
-7.833214	correlation
-7.748334	correspond
-7.588822	correspondence
-7.022018	correspondent
-7.699888	correspondents
-7.62219	corresponding
-7.758131	corresponds
-7.556054	corridor
-7.731164	corridors
-7.473778	corrupt
-7.692851	corrupted
-7.296093	corruption
-7.795114	cortez
-7.715504	cory
-8.8269	coryza	0
-7.125358	cos
-7.726748	cosmetic
-7.754745	cosmetics
-7.640072	cosmic
-7.806889	cosmo
-7.615717	cossack
-6.585779	cost
-7.632494	costa
-7.631278	costing
-7.579488	costly
-6.831368	costs
-7.317235	costume
-7.511829	costumes
-7.796746	cot
-7.489819	cottage
-7.823227	cottages
-7.213276	cotton	-0.1208097
-7.472727	couch
-7.781486	cougar
-2.542904	cough	-0.4195052
-7.775203	coughed
-3.445985	coughing	-0.2224588
-3.047214	could	-0.1155612
-7.274435	could've
-6.510677	couldn't
-6.830576	council
-7.679399	councilman
-7.799375	councils
-6.857494	counsel
-7.785943	counsel's
-7.487816	counseling
-7.652401	counsellor
-7.280653	counselor
-7.709873	counselors
-7.782942	counsels
-6.877373	count
-7.760692	countdown
-7.41579	counted
-7.540233	countenance
-7.225175	counter
-7.706639	counterfeit
-7.745309	counterpart
-7.75438	counterparts
-7.790576	counters
-7.640914	countess
-7.613746	counties
-7.295414	counting
-7.523905	countless
-6.705582	countries
-6.115434	country
-7.170589	country's
-7.795295	countrymen
-7.647734	countryside
-7.268991	counts
-6.806218	county
-7.827099	county's
-7.414444	coup
-6.573946	couple	-0.1116628
-7.620877	coupled
-7.330989	couples
-7.81177	coupon
-7.727852	coupons
-7.191603	courage
-7.612525	courageous
-7.648574	courier
-6.291112	course
-7.460581	courses
-6.284532	court
-7.506594	court's
-7.795748	courteous
-7.456274	courtesy
-7.492013	courthouse
-7.756118	courting
-7.585335	courtney
-7.013355	courtroom
-7.177727	courts
-7.776934	courtship
-7.823318	courtyard
-7.137703	cousin
-7.542603	cousins
-7.725458	cove
-7.760326	covenant
-6.752405	cover
-6.866297	coverage
-6.842454	covered
-7.049664	covering
-7.287841	covers
-7.636706	covert
-7.824938	coveted
-7.314909	cow
-7.597673	coward
-7.780121	cowardice
-7.703126	cowardly
-7.70978	cowards
-7.379879	cowboy
-7.571843	cowboys
-7.784033	cowlings
-7.426934	cows
-7.676519	cox
-7.766264	coyote
-7.823678	coyotes
-7.686732	cozy
-7.554823	crab
-7.706916	crabs
-7.166579	crack
-7.778938	crackdown
-7.425878	cracked
-7.712274	cracker
-7.681071	crackers
-7.530649	cracking	-0.03476528
-7.53568	cracks
-7.745951	cradle
-7.346856	craft
-7.819442	crafts
-7.81457	crafty
-7.274045	craig
-7.817638	cram
-7.735301	crammed
-7.790758	cramp
-7.746776	cramped
-8.8269	cramping	0
-3.269896	cramps	-0.1428474
-7.796474	cranberry
-7.530839	crane
-3.446006	cranial	-0.307934
-7.624158	crank
-7.766812	cranky
-7.055367	crap
-7.833124	craps
-7.075217	crash
-7.329731	crashed
-7.654641	crashes
-7.525046	crashing
-7.784488	crate
-7.691276	crater
-7.813306	crates
-7.797109	crave
-7.679121	craving
-7.631933	crawford
-7.570426	crawl
-7.619	crawled
-7.480561	crawling
-7.821425	craze
-7.807703	crazed
-6.935071	crazy
-7.277641	cream
-6.872725	create
-6.841167	created
-7.364441	creates
-7.146811	creating
-7.316072	creation
-7.782851	creations
-7.317817	creative
-7.727944	creativity
-7.690163	creator
-7.201564	creature
-7.190138	creatures
-7.638109	credentials
-7.233168	credibility
-7.47225	credible
-6.799779	credit
-7.767999	credited
-7.750167	creditors
-7.555392	credits
-7.620689	creed
-7.393083	creek
-7.516585	creep
-7.558514	creeping
-7.676426	creeps
-7.563055	creepy
-7.533023	crept
-7.756027	crescent
-7.606607	crest
-6.934183	crew
-7.395972	crews
-7.738517	crib
-7.581186	crichton
-7.517822	cricket
-7.038059	cried
-7.383254	cries
-6.468572	crime
-7.039042	crimes
-6.80394	criminal
-7.622658	criminalist
-7.174207	criminals
-7.692758	crimson
-7.723709	cripple
-7.603411	crippled
-7.813848	crippling
-7.675219	crises
-6.800275	crisis
-7.632869	crisp
-7.829798	crispy
-7.635677	cristina
-7.605855	criteria
-7.459241	critic
-6.997991	critical
-7.67401	critically
-7.166775	criticism
-7.749434	criticisms
-7.616186	criticize
-7.396453	criticized
-7.67122	criticizing
-7.095934	critics
-7.833035	critique
-7.622565	croat
-7.430871	croatia
-7.532168	croatian
-7.547058	croats
-7.713658	crockett
-7.738517	crocodile
-7.807522	crocodiles
-7.803903	croft
-7.738609	cromwell
-7.709503	crook
-7.618532	crooked
-7.737231	crooks
-7.420979	crop
-7.493253	crops
-7.686732	crosby
-6.708758	cross
-7.139466	crossed
-7.50707	crosses
-7.275115	crossfire
-7.246708	crossing
-7.814931	crossroads
-7.823498	crotch
-7.75438	crouched
-7.767451	crouching
-7.610741	crow
-6.99937	crowd
-7.348596	crowded
-7.745309	crowding
-7.412906	crowds
-7.544878	crowley
-7.352753	crown
-7.623033	crowned
-7.827279	crowning
-7.752457	crowns
-7.759411	crows
-7.365793	crucial
-7.562393	crude
-7.375925	cruel
-7.817097	cruelly
-7.585052	cruelty
-7.361351	cruise
-7.754288	cruiser
-7.816195	cruisers
-7.701091	cruising
-7.76955	crumble
-7.817097	crumbled
-7.748426	crumbling
-3.446006	crumbly	-0.3076227
-7.763068	crumbs
-7.819803	crumpled
-7.652029	crunch
-7.675404	crusade
-7.444012	crush
-7.367337	crushed
-7.585524	crushing
-7.821335	crusoe
-7.705068	crust
-8.8269	crusty	0
-7.649228	cruz
-7.100644	cry
-7.1081	crying
-7.279099	crystal
-7.659489	crystals
-7.734383	cub
-7.098485	cuba
-7.801096	cuba's
-7.16159	cuban
-7.47674	cubans
-7.815112	cube
-7.768272	cubs
-7.704328	cuckoo
-7.832046	cucumber
-7.638577	cue
-7.667406	cuff
-7.762063	cuffs
-7.717626	cuisine
-7.785943	culinary
-7.829978	cullen
-7.423477	cult
-7.697297	cultivated
-7.815924	cultivation
-7.265295	cultural
-6.966054	culture
-7.557189	cultures
-7.669453	cum
-7.808155	cummings
-7.606607	cunning
-7.769002	cunningham
-7.671592	cuomo
-7.034517	cup
-7.762976	cupboard
-7.694519	cupcake
-7.711443	cupcakes
-7.732176	cupid
-7.518867	cups
-7.826019	curator
-7.652775	curb
-7.326535	cure
-7.565512	cured
-7.727668	cures
-7.674754	curfew
-7.821876	curing
-7.408675	curiosity
-7.26831	curious
-7.635209	curiously
-7.733739	curl
-7.677635	curled
-7.772651	curling
-7.749342	curls
-7.608204	curly
-7.665637	currencies
-7.160025	currency
-6.848194	current
-7.145146	currently
-7.676612	currents
-7.714581	curriculum
-7.641755	curry
-7.431734	curse
-7.545258	cursed
-7.712735	curses
-7.683856	cursing
-7.726011	curt
-7.533877	curtain
-7.597956	curtains
-7.372452	curtis
-7.533308	curve
-7.721129	curved
-7.684042	curves
-7.746776	cushion
-7.81457	cushions
-7.827009	custard
-7.809059	custer
-7.240377	custody
-7.415502	custom
-7.806075	customary
-7.315588	customer
-7.083467	customers
-7.399341	customs
-6.343649	cut
-7.751541	cutbacks
-7.311226	cute
-7.616467	cutler
-6.769656	cuts
-7.61384	cutter
-7.797018	cutters
-6.909791	cutting
-7.662004	cy
-7.7783	cyanide
-3.446006	cyanosis	-0.02303519
-7.748426	cyber
-7.825659	cyberspace
-7.333216	cycle
-7.677727	cycles
-7.787034	cylinder
-7.546774	cynical
-7.694611	cynicism
-7.372934	cynthia
-7.809963	cyprus
-7.628094	cyril
-7.539474	cyrus
-7.78667	czar
-7.646333	czech
-7.767907	d
-7.598426	d'amato
-6.359795	d.
-7.194826	da
-7.788396	da's
-6.654052	dad
-7.368785	dad's
-6.977492	daddy
-7.475403	daddy's
-7.736864	dade
-7.690812	dads
-7.721405	dagger
-7.820163	dahlia
-6.922335	daily	-0.03477976
-7.798831	dainty
-7.641288	dairy
-7.391156	daisy
-7.557568	dakota
-7.290948	dale
-7.825209	dale's
-7.793753	daley
-7.246611	dallas
-7.633056	dalton
-7.830338	daly
-7.570992	dam
-3.44585	damage	-0.01631735
-7.237358	damaged
-7.504879	damages
-7.539	damaging
-7.753739	damascus
-7.511163	dame
-7.821516	dames
-7.713012	damian
-7.619657	damien
-7.627625	dammit
-6.889236	damn
-7.583639	damned
-7.460964	damon
-7.640166	damp
-7.818721	damsel
-6.813151	dan
-7.728404	dan's
-7.372452	dana
-6.894969	dance
-7.504213	danced
-7.453018	dancer
-7.446887	dancers
-7.484571	dances
-7.073842	dancing
-7.766721	dandy
-7.746868	dane
-7.778938	dang
-7.0232	danger
-6.912063	dangerous
-7.697389	dangerously
-7.511258	dangers
-7.687289	dangling
-7.740813	dani
-6.989812	daniel
-7.708764	daniel's
-7.56693	danielle
-7.572976	daniels
-7.667219	danish
-6.992572	danny
-7.673266	danny's
-7.551037	dante
-7.520389	daphne
-7.680699	dar
-7.755112	darby
-7.707008	darcy
-7.410021	darden
-7.385471	dare
-7.572126	dared
-7.759229	dares
-7.662284	daria
-7.564756	daring
-7.685341	darius
-6.896649	dark	-0.1204921
-7.772742	darken
-7.741731	darkened
-3.26989	darker	-0.2819423
-7.824218	darkly
-7.361544	darkness
-7.740996	darlene
-6.942672	darling
-7.62547	darn
-7.702016	darnell
-7.75438	darrell
-7.55454	darren
-7.793753	darrow
-7.588822	darryl
-7.696278	dart
-7.690349	darted
-7.826649	darting
-7.690256	darts
-7.633244	darwin
-7.704883	daryl
-7.672615	das
-7.531789	dash
-7.55009	dashed
-7.696186	dashing
-7.456848	dat
-6.876879	data
-7.398571	database
-7.761879	databases
-6.840375	date
-7.362992	dated
-7.239891	dates
-7.222445	dating
-7.785761	datuk
-2.968839	daughter	-0.08542877
-7.693314	daughter's
-7.342601	daughters
-7.043075	dave
-7.765717	dave's
-7.684598	davenport
-7.756485	davey
-6.519335	david
-7.586184	david's
-7.81818	davidian
-7.809692	davidians
-7.713012	davidson
-7.696186	davies
-7.139466	davis
-7.704421	davy
-7.264322	dawn
-7.322467	dawson
-7.751083	dax
-2.90157	day	-0.06184182
-7.495351	day's
-7.828269	daycare
-7.547153	daylight
-2.901732	days	-0.1372015
-7.680421	daytime
-7.576374	dayton
-7.798106	dazed
-7.821876	dazzled
-7.750991	dazzling
-6.546496	de
-7.637922	deacon
-6.495947	dead
-7.35884	deadline
-7.802816	deadlines
-7.291532	deadly
-7.476071	deaf
-8.8269	deafness
-6.395069	deal
-7.416751	dealer
-7.344535	dealers
-7.832675	dealership
-6.94208	dealing
-7.646333	dealings
-7.147496	deals
-7.291434	dealt
-7.055563	dean
-7.779666	dean's
-7.832136	deanna
-6.783927	dear
-7.61168	dearest
-7.707655	dearly
-6.393476	death
-7.813577	death's
-7.243884	deaths
-7.500974	deb
-7.784033	debacle
-6.729296	debate
-7.665078	debated
-7.511163	debates
-7.594097	debating
-7.402998	debbie
-7.377083	deborah
-7.539285	debra
-7.470911	debris
-7.048091	debt
-7.52343	debts
-7.602941	debut
-7.75868	dec
-7.266559	decade
-7.173327	decades
-7.808155	decaf
-7.630997	decay
-7.612995	deceased
-7.761971	deceit
-7.823498	deceitful
-7.76882	deceive
-7.666754	deceived
-7.787215	deceiving
-7.050156	december
-7.720207	decency
-7.318786	decent
-7.623595	deception
-6.881921	decide	-0.1193813
-6.650874	decided
-7.664799	decidedly
-7.31045	decides
-7.457518	deciding
-6.56609	decision
-7.007742	decisions
-7.607735	decisive
-7.811138	decisively
-7.370908	deck
-7.771283	decked
-7.773745	decker
-7.708302	decks
-7.436723	declaration
-7.802726	declarations
-7.437203	declare
-6.985575	declared
-7.568347	declares
-7.492013	declaring
-7.315006	decline
-7.300654	declined
-7.765808	declines
-7.555297	declining
-7.822327	decorate
-7.571654	decorated
-7.764438	decorating
-7.745217	decoration
-7.667219	decorations
-7.792392	decorative
-7.81457	decoy
-7.660793	decrease
-3.269893	decreased	-0.1199823
-8.8269	decreases
-7.640727	decree
-7.811861	decreed
-7.818089	decrees
-7.345115	dedicated
-7.640166	dedication
-7.665544	deduction
-7.712643	deductions
-7.346953	dee
-7.628469	deed
-7.555865	deeds
-7.589199	deemed
-6.782243	deep	-0.1195615
-7.805984	deepened
-7.318882	deeper
-7.775294	deepest
-7.176065	deeply	-0.1205698
-7.471198	deer
-7.72776	default
-7.207714	defeat
-7.353139	defeated
-7.804718	defeating
-7.763068	defeats
-7.676148	defect
-7.70627	defective	-0.1208033
-7.701369	defects
-7.487243	defence
-7.17538	defend
-7.125358	defendant
-7.617031	defendant's
-7.49373	defendants
-7.444299	defended
-7.685526	defender
-7.687011	defenders
-7.31365	defending
-7.781213	defends
-6.282437	defense
-7.760143	defenseless
-7.630997	defenses
-7.390096	defensive
-7.831686	defer
-7.798106	deferred
-7.638109	defiance
-7.720299	defiant
-7.787306	deficiency
-7.827639	deficient
-6.88113	deficit
-7.681536	deficits	-0.03494117
-7.739895	defied
-7.830248	defies
-7.401555	define
-7.424918	defined
-7.710888	defines
-7.651842	defining
-7.574959	definite
-6.859374	definitely
-7.352559	definition
-7.817999	definitions
-7.711627	definitive
-7.781304	deformed
-8.8269	deformities
-7.734383	defy
-7.760326	defying
-7.804808	degenerate
-8.8269	degeneration	0
-7.686361	degradation
-7.673824	degraded
-7.766264	degrading
-7.062247	degree	-0.03482094
-7.396742	degrees	-0.1208032
-8.8269	dehydration	0
-7.826649	deities
-7.744942	deity
-7.827819	deja
-7.378819	del
-7.664892	delaney
-7.642316	delaware
-7.213861	delay
-7.386338	delayed
-7.744208	delaying
-7.563527	delays
-7.647548	delegate
-7.38229	delegates
-7.417809	delegation
-7.802183	delete
-7.749801	deleted
-7.804537	delgado
-7.80164	delhi
-7.78094	deli
-7.576374	delia
-7.557189	deliberate
-7.367917	deliberately
-7.769094	deliberation
-7.656226	deliberations
-7.706731	delicacy
-7.425494	delicate
-7.751358	delicately
-7.42415	delicious
-7.411656	delight
-7.386146	delighted
-7.581469	delightful
-7.696741	delights
-7.828179	delilah
-7.808155	delirious
-8.8269	delirium	0
-7.228977	deliver
-7.820704	deliverance
-7.100056	delivered
-7.687474	deliveries
-7.476071	delivering
-7.657811	delivers
-7.217958	delivery
-7.635677	dell
-7.698408	della
-7.439313	delta
-7.806255	deluded
-7.746593	delusion
-7.729324	delusional
-7.743933	delusions
-6.992572	demand
-7.218739	demanded
-7.276475	demanding
-7.115063	demands
-7.664333	demeanor
-7.828359	demented
-7.822597	dementia	-0.03496067
-7.809059	demi
-7.742923	demise
-7.795839	demo
-7.815022	democracies
-6.963588	democracy
-7.044255	democrat
-6.662494	democratic
-7.822958	democratically
-6.626135	democrats
-7.823498	demographic
-7.782396	demolished
-7.766812	demolition
-7.397512	demon
-7.80019	demonic
-7.44056	demons
-7.490392	demonstrate
-7.49659	demonstrated
-7.743015	demonstrates
-7.741364	demonstrating
-7.395586	demonstration
-7.523905	demonstrations
-7.63895	demonstrators
-7.795748	dempsey
-7.446407	den
-7.500497	denial
-7.082779	denied
-7.477218	denies
-7.739068	denis
-7.372452	denise
-7.714858	denmark
-7.072466	dennis
-7.329537	denny
-7.81439	denny's
-7.830068	denotes
-7.827819	denounce
-7.639231	denounced
-7.825749	denouncing
-7.669081	dense
-7.707008	density
-7.655759	dent
-7.527326	dental	-0.1208032
-7.660514	dentist
-7.832495	dentists
-7.427702	denver
-7.280848	deny
-7.505832	denying
-7.819893	denzel
-7.833394	deodorant
-7.679307	depart
-7.473492	departed
-7.748426	departing
-6.53615	department
-7.687382	department's
-7.532548	departments
-7.384989	departure
-7.317817	depend
-7.822687	dependable
-7.604257	depended
-7.758863	dependence
-7.808517	dependency
-7.435573	dependent
-7.274337	depending	-0.1197228
-7.04514	depends
-7.831326	depict
-7.639137	depicted
-7.817368	depicting
-7.803813	depleted
-7.684969	deploy
-7.558704	deployed
-7.534636	deployment
-7.812854	deportation
-7.748884	deported
-7.772195	deposed
-7.490296	deposit
-7.635864	deposited
-7.578828	deposition
-7.815022	depositions
-7.541845	deposits
-7.685248	depot
-7.828089	depraved
-7.400015	depressed
-7.660141	depressing
-3.445948	depression	-0.2224355
-7.815924	deprive
-7.557001	deprived
-7.432598	depth
-7.652308	depths
-7.531124	deputies
-7.0232	deputy
-7.577979	der
-7.803088	deranged
-7.71947	derby
-7.799012	deregulation
-7.288909	derek
-7.79348	derivatives
-7.815022	derive
-7.538526	derived
-7.817548	derives
-8.8269	dermatitis	0
-8.8269	dermis	0
-7.654174	derrick
-7.802726	dershowitz
-7.226442	des
-7.653428	descend
-7.733463	descendants
-7.434421	descended
-7.619188	descending	-0.1196352
-7.757216	descends
-7.564472	descent
-7.130061	describe	-0.1057246
-6.91473	described	-0.1197143
-7.369461	describes
-7.453784	describing
-7.214934	description
-7.631465	descriptions
-7.828449	descriptive
-7.182614	desert
-7.486957	deserted
-7.750258	deserts
-7.286579	deserve
-7.441902	deserved
-7.198733	deserves
-7.724998	deserving
-7.066571	design
-7.543172	designated
-7.802545	designation
-6.951849	designed
-7.42415	designer
-7.632869	designers
-7.667964	designing
-7.444012	designs
-7.665264	desirable
-7.077574	desire
-7.445736	desired
-7.422421	desires
-7.737599	desiring
-7.795023	desirous
-7.170882	desk
-7.774292	desks
-7.632494	desmond
-7.781122	desolate
-7.464791	despair
-7.228977	desperate
-7.385953	desperately
-7.680328	desperation
-7.783942	despicable
-7.769276	despise
-7.704421	despised
-6.801166	despite
-8.8269	desquamation	0
-7.532358	dessert
-7.797472	desserts
-7.53587	destination
-7.815292	destinations
-7.556338	destined
-7.390675	destiny
-7.772924	destitute
-7.170198	destroy
-6.981534	destroyed
-7.764894	destroyer
-7.406174	destroying
-7.645399	destroys
-7.214544	destruction
-7.540423	destructive
-7.640072	detached
-7.76389	detachment
-7.184568	detail
-7.407713	detailed
-7.785488	detailing
-6.891312	details
-7.536059	detained
-7.617031	detect	-0.1200361
-7.509164	detected
-7.819352	detecting
-7.664612	detection
-6.692381	detective
-7.267823	detectives
-7.724906	detector
-7.772013	detectors
-7.492013	detention
-7.761971	deter
-8.8269	deteriorate	0
-7.831956	deteriorated
-7.805351	deteriorating
-3.445988	deterioration	-0.02342565
-7.342214	determination
-7.122711	determine
-7.008924	determined
-7.700166	determines
-7.644932	determining
-7.79212	deterrent
-7.828359	detonated
-7.800824	detonation
-7.306377	detroit
-7.78776	dev
-7.56192	devastated
-7.482948	devastating
-7.688123	devastation
-7.159242	develop
-7.048091	developed
-7.784579	developer
-7.736772	developers
-7.235604	developing
-6.88202	development
-7.348403	developments
-7.653987	develops
-7.140543	device
-7.346663	devices
-7.383639	devil
-7.730429	devil's
-7.618156	devils
-7.799012	devious
-7.684227	devised
-7.749617	devlin
-7.7465	devoid
-7.630716	devon
-7.742648	devote
-7.298714	devoted
-7.526946	devotion
-7.824938	devour
-7.784033	devoured
-7.813486	devouring
-7.78667	devout
-7.768364	dew
-7.536059	dewey
-7.486003	dexter
-7.697297	dey
-7.732635	dharma
-7.218641	di
-7.822507	dia
-7.666754	diabetes	-0.03490499
-7.80933	diabetic
-7.592496	diagnosed
-7.556054	diagnosis
-7.730429	diagnostic
-7.708025	diagram
-7.488865	dial
-7.727208	dialect
-7.816104	dialed
-7.784852	dialing
-7.326148	dialogue
-7.79212	dialysis
-7.81177	diameter
-7.33215	diamond
-7.416271	diamonds
-7.278905	diana
-7.775841	diana's
-7.306668	diane
-7.811228	dianne
-7.736496	diaper
-7.697019	diapers
-8.8269	diaphoresis	0
-7.626875	diaries
-2.901901	diarrhea	-0.8646448
-7.464217	diary
-7.685526	diaz
-7.635115	dice
-6.891016	dick
-7.797743	dick's
-7.708672	dickens
-7.627532	dickie
-7.775294	dicks
-7.784852	dicky
-7.665916	dictate
-7.696834	dictated
-7.761423	dictates
-7.636986	dictator
-7.809963	dictators
-7.723524	dictatorship
-7.682464	dictionary
-5.690462	did	-0.1122233
-7.777936	didi
-5.971273	didn't
-6.777585	die
-6.477034	died
-7.338441	diego
-7.105354	dies
-7.701553	diesel
-7.230341	diet
-7.522955	differ
-7.750717	differed
-6.803841	difference
-7.169513	differences
-6.307165	different	-0.03477532
-7.792028	differential
-7.23346	differently
-7.720299	differing
-7.661632	differs
-6.615899	difficult
-3.445956	difficulties	-0.2223548
-2.843894	difficulty	-0.1528538
-7.809149	diffuse	-0.1206477
-7.315782	dig
-7.752274	digest	0
-3.446006	digested	-0.3063754
-3.269907	digestive	-0.1137577
-7.788396	digger
-7.368303	digging
-7.799012	digit
-7.424341	digital
-7.754197	digits
-7.6985	dignified
-7.826739	dignitaries
-7.368978	dignity
-7.716057	digs
-7.823498	dilated
-8.8269	dilation	0
-7.565512	dilemma
-7.824578	diligence
-7.829798	diligent
-7.823588	diligently
-7.674196	dillon
-7.821335	diluted
-7.541845	dim
-7.611492	dime
-7.639512	dimension
-7.811409	dimensional
-7.647361	dimensions
-7.733923	diminish
-7.578167	diminished
-7.805803	diminishing
-7.754014	dimitri
-7.778482	dimly
-8.8269	dimunition	0
-7.748884	din
-7.809873	dina
-7.736772	dinah
-7.774565	dine
-7.761605	dined
-7.642129	diner
-7.665078	ding
-7.505641	dining
-6.882514	dinner
-7.568726	dinners
-7.758131	dino
-7.645213	dinosaur
-7.604352	dinosaurs
-7.795658	dion
-7.509259	dip
-8.8269	diphtheritic	0
-7.47951	diplomacy
-7.612713	diplomat
-7.176749	diplomatic
-7.463165	diplomats
-8.8269	diplopia	0
-7.636144	dipped
-7.71698	dipping
-7.640634	dire
-6.902776	direct
-7.159731	directed
-7.471293	directing
-6.987053	direction
-7.414541	directions
-7.756576	directive
-6.797402	directly
-6.698237	director
-7.450719	directors
-7.769459	directory
-7.773745	directs
-7.733371	dirk
-7.300072	dirt
-7.081404	dirty
-7.582884	dis
-7.765077	disabilities
-7.608675	disability	-0.03490129
-7.403769	disabled
-7.745584	disadvantage
-7.211032	disagree
-7.797743	disagreeable
-7.71375	disagreed
-7.610929	disagreement
-7.776479	disagreements
-7.718455	disagrees
-7.256928	disappear
-7.581658	disappearance
-6.981041	disappeared
-7.536059	disappearing
-7.481038	disappears
-7.774201	disappoint
-7.293278	disappointed
-7.59259	disappointing
-7.463356	disappointment
-7.832675	disappointments
-7.810234	disapproval
-7.833124	disapprove
-7.73815	disarm
-7.826199	disarmament
-7.750258	disarmed
-7.074136	disaster
-7.576468	disasters
-7.650442	disastrous
-7.832495	disbelief
-7.62903	disc
-7.72076	discarded
-2.570903	discharge	-0.5709985
-7.582035	discharged
-7.801277	disciple
-7.759777	disciples
-7.712181	disciplinary
-7.294637	discipline
-7.689329	disciplined
-7.663867	disclose
-7.598144	disclosed
-7.600214	disclosure
-7.646894	disco
-3.445983	discomfort	-0.0314062
-7.801277	disconnect
-7.709319	disconnected
-7.694055	discontent
-7.730061	discord
-7.473396	discount
-7.801277	discounts
-7.714119	discourage
-7.682742	discouraged
-7.826919	discouraging
-7.641007	discourse
-7.447557	discover
-6.95323	discovered
-7.657811	discoveries
-7.639512	discovering
-7.700628	discovers
-7.173425	discovery
-7.785034	discredit
-7.822327	discredited
-7.703311	discreet
-7.750717	discreetly
-7.540043	discretion
-7.825209	discriminate
-7.332538	discrimination
-7.789032	discs
-3.445885	discuss	-0.03379535
-7.184471	discussed
-7.300654	discussing
-6.986265	discussion
-7.329827	discussions
-7.757583	disdain
-6.866792	disease
-7.779119	diseased
-7.34231	diseases
-7.829168	disengaged
-7.824038	disfigured
-7.612525	disgrace
-7.797653	disgraced
-7.828179	disgraceful
-7.774565	disgruntled
-7.591554	disguise
-7.536249	disguised
-7.816285	disguises
-7.658277	disgust
-7.670569	disgusted
-7.47244	disgusting
-7.403865	dish
-7.441902	dishes
-7.728404	dishonest
-7.828719	disillusioned
-7.607077	disk
-7.793753	disks
-7.615529	dislike
-7.793753	disliked
-7.763525	dismal
-7.80707	dismantle
-7.812854	dismantled
-7.828719	dismantling
-7.773745	dismay
-7.827729	dismayed
-7.637361	dismiss
-7.742832	dismissal
-7.272101	dismissed
-7.826559	dismissing
-7.410118	disney
-7.797562	disneyland
-3.445961	disorder	-0.03149202
-7.674196	disorders
-8.8269	disorientation	0
-7.829348	disoriented
-7.545826	dispatch
-7.674568	dispatched
-7.801096	disperse
-7.699055	dispersed
-7.666288	displaced
-7.820885	displacement
-7.219519	display
-7.40271	displayed
-7.686918	displaying
-7.586561	displays
-7.814479	displeased
-7.78885	displeasure
-7.716426	disposable
-7.661632	disposal
-7.746776	dispose
-7.565323	disposed
-7.569481	disposition
-7.263836	dispute
-7.712089	disputed
-7.542319	disputes
-7.821425	disqualified
-7.599367	disregard
-7.772104	disrespect
-7.81827	disrespectful
-7.745676	disrupt
-7.78776	disrupted
-7.827099	disrupting
-7.753098	disruption
-7.796837	dissatisfaction
-7.736312	dissatisfied
-7.748243	dissent
-7.814931	dissidents
-7.751633	dissolve
-7.656785	dissolved
-7.135352	distance
-7.733371	distances
-7.401459	distant
-3.446006	distension	-0.2221314
-3.446006	distention	-0.03209455
-7.540802	distinct
-7.467182	distinction
-7.771192	distinctions
-7.721036	distinctive
-7.630716	distinctly
-7.691832	distinguish
-7.406078	distinguished
-7.67215	distorted
-7.763342	distortion
-7.719839	distract
-7.557947	distracted
-7.731992	distracting
-7.651469	distraction
-7.779119	distractions
-7.778209	distraught
-3.269882	distress	-0.2819611
-7.667685	distressed
-7.819172	distressing
-7.722603	distribute
-7.530365	distributed
-7.750075	distributing
-7.344535	distribution
-7.776843	distributor
-6.865308	district
-7.401844	districts
-7.661632	distrust
-7.71698	disturb
-3.445982	disturbance	-0.02319203
-2.901901	disturbances	-0.925416
-7.43682	disturbed
-7.435285	disturbing
-7.593249	ditch
-7.795114	ditched
-7.755021	ditto
-7.794569	diva
-7.485144	dive
-7.825299	diver
-7.660048	divers
-7.59805	diverse
-7.696649	diversion
-7.541656	diversity
-7.758039	divert
-7.699055	diverted
-7.823498	diverting
-7.820073	dives
-7.416078	divide
-7.176945	divided
-7.808969	dividend
-7.790758	dividends
-7.725182	divides
-7.614403	dividing
-7.379108	divine
-7.579394	diving
-7.782942	divinity
-6.981731	division
-7.462686	divisions
-7.768546	divisive
-7.188281	divorce
-7.437203	divorced
-7.818811	divorces
-7.760326	dix
-7.767633	dixie
-7.471675	dixon
-8.8269	dizziness	0
-7.656972	dizzy
-2.255403	do	-0.6440938
-7.607453	dobbs
-7.085431	doc
-7.579488	dock
-7.812764	docked
-7.695538	docking
-7.765534	docks
-2.468221	doctor	-0.8524292
-7.561636	doctor's
